accordion 0.009247028985275673 0.05233710696204351 -0.02388845402926493 0.036727014561900154 0.05541730106163483 -0.05968085633447537 0.04852465189133699 -0.03722025568668659 -0.00279145292006433 -0.025562172540678427 0.06020893521893483 0.054767993225071296 0.03379955640411936 0.01154884583173463 -0.025231440300838306 0.03366899198422638 -0.020339322742074728 -0.011234280868218495 -0.02011491528425652 0.04512266452030207 0.018202270631893322 -0.02181941643357277 0.0011886512466634696 0.028871291424505986 0.06249709248256225 0.04017694308780707 -0.035418272913935095 0.05585176709036414 0.043119082952706285 -0.0006715581000137788 0.03461916526206411 0.019677437582196526 -0.02016869406753148 0.042814423652509086 0.03348595699152121 -0.05425814546358127 -0.07348966713135059 0.04872344993054867 0.047789201176223844 -0.060761086929302946 0.02585958249759502 0.011575405772488851 0.038077655964745924 0.04616110668016168 -0.006276261956932453 -0.012365133143388309 0.04557725953726241 -0.02804866164492873 -0.009271570042563746 0.03679821880247731 0.028189292105917748 0.022935540415346622 -0.02064019930548966 0.02896583517296956 -0.056402906990395144 0.009803737943562178 0.06025928296506978 -0.016431222025018472 -0.029027996996704202 -0.04898415462901959 -0.04388663796131508 0.01623855918072737 -0.03194937070545096 -0.0030677451107364436 -0.031719865438599996 -0.009934195772355171 0.028949310035946276 0.032933713939900584 0.025074864379488505 0.00849132021315969 0.010370611481798383 0.025120014468064673 0.04332002515618045 -0.023527294491381887 0.010948511288286401 -0.040654585123635255 -0.0002735656274196047 0.02515625273092435 -0.001737409199659641 0.0014767057907122832 0.0017869849331103838 -0.040519926437320046 -0.00383661723194214 0.015583015333574552 -0.029377617944891635 0.05309984704049734 -0.04887625786404197 -0.00517617269920615 -0.013063501871119324 0.0013272872624488978 -0.04019284979082071 -0.030782453930721834 -0.04494534565422397 0.04363209840196829 0.035134590248792216 -0.06298428612689559 0.06649410681655774 0.04309620292714009 0.01559030736098066 -0.020116491091007795 -0.04675446049525188 -0.048131850154067464 0.022257026392393388 0.056175554457765356 0.0001972605331012836 0.0031026195591458906 0.029814340747319736 0.03789530429415978 0.017693680899146084 -0.025762155526675858 0.039518545023523845 -0.0021235039815879785 -0.005361309266076065 0.0035855401074513793 -0.0012203830365951245 -0.009315026744913597 0.0030580700661700507 -0.002622192752404282 -0.055504356081096023 0.024668407617495038 -0.016709073088490047 0.019679947523400187 0.003204808382389064 0.05595760151314048 0.0242772653985482 -0.014822328364691483 -0.05487127666576551 -0.007317195073343241 0.048009709669993475 -0.02344664057286886 0.051601595155751474 0.04986032026891525 0.025944503454061654 0.03155164772089428 0.043951696071487203 0.039701002255941815 -0.033409956914301105 -0.024871431523934007 0.04112617041055973 -0.038361145864025906 -0.008842528385754962 -0.012671058445658464 -0.04210225234811123 -0.036514246478103675 -0.0014879034044077764 0.05700176660544597 0.020189039872583144 -0.04337524658498856 -0.04728261438699869 -0.02216134625156813 0.007517073813897486 -0.02768191645065179 -0.01360376891926325 0.028108973826210085 0.045832066563889384 -0.028134078002319887 0.026784878618155535 -0.039556656910393104 0.03263044864154206 -0.0343493170176561 0.004944327466476422 0.019833382254896257 0.048415109336089626 -0.013426440445562968 0.030883742030709982 -0.015627754458154623 0.026505773510927193 -0.0004662374983756588 -0.015366595435457734 0.008874635099066207 -0.03242133049151072 -0.004271606198297097 -0.004927251416330154 0.0427103118541149 0.01206139693609797 -0.02683116803662135 0.020116807214575462 -0.025222131982445717 0.02069444997379413 -0.004639492907489722 0.03555659315763758 -0.011726200414928965 0.0329553516035398 0.024815879077113304 -0.034635417960369244 -0.0382915184331628 -0.040885064750909805 -0.0029788522470670822 -0.011785936559765385 -0.005489881629518305 0.0010803892062260555 0.020601909500188552 -0.01426438461147392 -0.0320282973205814 -0.03533452249561938 -0.02242562875079994 -0.05502358881326822 0.009173744590952992 -0.010379734118312346 -0.002687514598409717 0.000656388198527006 0.06024695889881024 -0.0002010540606883856 0.023976039714538135 0.002110955072566867 -0.043382300780369684 -0.04146505276171061 -0.05615090263577608 0.00882154581351922 0.0017310758121311665 0.03500422050889868 -0.027208243740740448 -0.005036948143662392 -0.008712599949481396 0.009609509214687232 0.060921904989160024 0.034240157200166814 -0.033732630706463866 0.028701007079619627 0.018392419218658827 0.011453400186907787 -0.026019425668682043 0.020356358745350286 0.027772592846304178 -0.0025856766778116044 -0.013369016349315643 0.008632615244445892 -0.010159650602592872 0.05194619340069879 0.001770240433800679 0.02675481430756358 -0.041543122237691514 -0.03177146699566107 -0.010059648300879277 0.0026648589499438037 -0.00848769754744493 -0.020976654540460844 0.049301692517474294 0.023678403737274215 -0.019153346594136495 0.020665261070602216 0.04614604662100856 0.0045575548070841115 0.007270083476144534 0.01046838854941038 0.014753616791075239 0.013296211389108347 0.008672959104072876 -0.012145257769868923 -0.028310666792094707 0.049901314348412246 -0.012709905053130709 0.006188629768215693 0.010618822290920295 -0.048667898043417014 -0.0422039688206636 -0.0027418253728403496 0.01960455676397452 -0.04234938194545416 0.01193206468059753 0.03666478883958636 -0.02682585258466693 -0.0024246264141626083 -0.04815437899042781 -0.014027426484972239 -0.007443137108706511 0.0054884727757710675 -0.036170801506019555 0.049307794166872136 0.0508965751192031 -0.01820656581548974 -0.0393053162842989 -0.018393801167034186 -0.008790227154699655 0.020659431125610493 -0.008864259186129157 0.01678033417556435 -0.039187010717936434 0.03179020835803105 -0.04352752900180908 -0.004311736297005644 0.039942168773939975 0.00712829025892111 -0.003990621288092091 -0.01572846807539463 -0.005026284605264664 -0.02367354846165444 -0.0395348071693801 0.004459847015543626 -0.010725235494856652 0.020020660684587292 -0.04107936758261461 0.05683281845771349 0.06559441310281937 0.054745418521074146 0.009487960129403152 0.034420670941472054 0.04748528399683822 0.015420018157993372 0.03236948555478683
aeroplane 0.05503217104290213 -0.027020594204909036 -0.011678435307528292 -0.01377452863380313 0.033183060619714 0.018545053708034435 -0.037708715768530965 -0.03093583489369069 -0.026794932749388472 0.029160222504287958 0.015181653767025896 0.009873354649503849 0.0031920546482849333 0.03240805086014526 -0.028819549097014324 -0.010334289632737637 -0.026129125442821532 0.015162868624819177 0.016329593540701483 -0.033103156385810246 -0.005375060901444938 -0.016872157276208912 0.00904922840917217 0.0206850187553625 0.0398903080661382 0.04520214410565261 0.020719348586031368 -0.052900612637001486 0.039471238452409 0.03980277990922332 0.0046575394725160936 -0.025591382823352302 -0.05197492674259203 0.0663355150276662 -0.027687904192134738 -0.010795534056212221 0.030036145289029394 0.008769463415124587 0.01479780576171054 -0.0017743529086666448 0.0315611299842463 -0.0525554970871391 -0.004925997877892639 0.05425167017217193 -0.013963856734335423 -0.03584184657250132 -0.002082777176318424 -0.029181074484118392 0.029299036100772873 0.04461621483122664 0.03471382867012705 -0.043550000326441865 0.002494338176412774 0.05043294942671699 -0.04021412420219609 -0.009146829069192921 0.008860018141734014 -0.01680187907602106 0.015070199074930965 -0.031285451259464025 0.010341329100940908 0.03846407558635941 0.013072305458730884 -0.0027986223410282817 0.02207195452813591 0.025717335952711955 0.007095214046005692 0.00016965075129909174 -0.010978689500396805 -0.010951033793389797 -0.061453873690749915 -0.03757200489885041 0.013237476506869175 0.0327415335216626 -0.024216898617201617 -0.05409316847466731 0.00221286467941744 0.02737422749799277 -0.0018332837082977807 0.00997014659723001 0.0238705510606191 -0.0028583480826845126 0.0389131821825036 0.03870695939154497 0.035171157746974914 0.04631082361031856 0.008016855921596289 -0.004565530622910176 -0.03682487180880604 -0.028315475642947213 -0.0013365190077040876 0.017100774317181537 -0.03147347763712917 -0.050016350645039766 -0.04057280546320336 -0.01360673816608531 -0.009814061191199082 0.03126645296911842 0.017939096449741294 0.03885613699510161 -0.04168370504131807 -0.024027093305319016 0.007306315886255886 -0.004214105329343251 0.005785828023882849 -0.0204093521793506 -0.03176051564514637 0.04303278135401862 0.0021059010843081133 -0.012311693813119615 -0.014719999661403043 -0.02094273646694741 0.05222309573686549 -0.001307262373822076 0.0364660491385231 -0.03092151614172118 0.007671304712338107 0.04744096250838733 -0.04314151565943446 -0.00047982557277594296 -0.015111465781436502 -0.0011505214497447014 0.017928684263357093 -0.027134110452607274 -0.043278668874076436 0.00815868440882436 0.009841465357957142 0.0041302926755244175 -0.03331747797450849 0.007432281181016671 0.032800033289406984 -0.005794337551508631 -0.017182599354003156 -0.03410688867526395 0.02246635956024485 -0.043888101454025934 -0.0157545194379054 0.023032857653951005 0.01227186294272542 -0.00856771890539676 -0.015700281797243015 -0.03305829017023955 0.046453378961554596 -0.01909498930243509 0.034093632362782955 0.009812143631279469 -0.022226412115352496 0.005970414994018418 0.03849454822817019 -0.018945427894193147 -0.03185152422104563 0.017035505767645582 -0.06510596715712122 0.004792843546186175 0.042440908561859815 -0.03474417491815984 0.04080590648975756 0.04724253677496953 0.044395510107278824 0.0029654271576354013 0.010819343367724546 -0.012434476703804518 -0.0011651635390340484 0.007033467333323122 0.04909728753513524 -0.009701915251623307 -0.02989173773676157 0.04028528616098421 0.05722971925778048 0.04978209930205984 0.004040646745124832 0.05025710438245109 -0.011018871997034043 -0.023271200122378235 0.028206030522207066 -0.024287420241827413 0.007529852446168661 0.019775037853313342 -0.01666982871081148 0.04286098738001393 -0.038788026331790855 -0.0032470366984073606 0.007178501408946302 -0.00038077379992630867 -6.141703176711286e-05 -0.00879652630205133 0.04441217893950774 0.05054853284465415 0.02296040133972253 0.03215914625824163 0.04884421971759626 0.0045668647757598334 0.024007649227444614 -0.02250004593016846 -0.053859349905646274 -0.040912889243502705 0.028360391118829802 -0.013785933144390583 -0.027824202618960823 0.008957472696368183 -0.038464068701224666 0.00849782073471163 0.0014718595942083215 0.010490460712130048 0.010466194445533412 -0.008398401792094643 -0.04140624570261155 -0.04671841914699014 0.03176138819461422 0.015777648241575144 0.02959242562896439 -0.05406221598345188 0.02250605379231274 0.02045334190396326 0.04159074125345796 0.03764271121638428 -0.02639603046035128 0.04489185245308493 0.030402259635073797 0.017073837848978916 0.07341331562825612 -0.03456677875614592 0.039548374413113506 0.006270447018323466 0.011827147449366748 -0.00042260863951274326 -0.0308673223147967 0.03544935012801683 -0.019734551099499446 0.0035303494493876186 0.051032437410737784 -0.013861320048038448 0.008742144156713039 -0.037588251155934164 0.03395517503044435 0.03110795107204467 0.0018907387722200447 0.04911396753907736 -0.020101849854524647 0.02972140216401645 0.0030994892419715014 0.0262070053057479 0.0634428050252609 0.023537972941994667 -0.02096633445970448 -0.00526230622615133 -0.0021533124880599125 -0.009409557163183178 -0.02103452923308526 -0.04723217112145254 0.030436775780149868 -0.013216710017461861 0.04264214571698436 -0.03151723902140345 0.0016044929382457798 -0.006397910083511046 0.03442869937446501 -0.06714272086641618 -0.034713452349283865 -0.010075071572958092 -0.005524011910893023 -0.011158861153359925 0.03810313931899145 -0.023352169498269047 0.025436001646864628 -0.05891335888632706 0.005152717432273286 0.04350543996718313 -0.00130892321301092 0.022374595049768686 0.032733773640627205 -0.009042928506720014 0.030033154180273414 0.01472145545163325 0.037402512023358474 0.03889085991042001 0.0670054273713114 -0.02321290148289076 0.04082880375374641 -0.04328938640121903 -0.0375513446217935 -0.044936666531222205 -0.021420846759740795 0.026051111303136816 0.026651238224336078 -0.008171030602950071 0.0006626289136225491 -0.0132905939327819 -0.03087275051179209 0.0009483852024589266 -0.0569750846230558 -0.05243518890347332 0.04988604558665039 -0.03772020173658218 0.0017143412759261473 -0.029278230853378773 0.010020551936967033 0.04019697316523109 0.013250652733924133 0.003152450097591749
alligator -0.014894739679220947 -0.010743068443844095 -0.006458396262132737 0.007135716543416493 -0.003580870819860138 0.039992863254155964 -0.019845021335640922 0.01123414296307601 0.013505532959243283 -0.013702965784432308 -0.010751260633696802 -0.04643949001729197 0.019424246460403083 -0.020266778335098934 -0.03734241536585614 0.03766912969877012 -0.0011235357560508419 -0.02271573252073722 -0.018076142900099512 -0.035812225949484855 -0.04269039159044041 -0.023068936221534386 -0.023973699101588863 -0.0465202085709393 -0.026432552818732802 0.0032300977618433535 -0.019867130955390166 -0.02256491133084637 -0.008106159190901963 -0.0008396949415327981 -0.027618819640338188 -0.054631731527365446 -0.020223428149620304 -0.022147720876091626 -0.028297885190113448 0.016686937804479385 0.02793635564739816 -0.017389862001436995 -0.022987649584138126 -0.006610747215745505 -0.03672204083886754 -0.03675326011580182 0.010385982488514856 -0.009643238357966766 0.026309441627290653 -0.017561283726536203 0.0013444119686027989 0.019866906557581387 0.026326417642849265 -0.03594003252510447 -0.04544304974479019 0.033048319586669095 -0.0009132108898484148 -0.025996072647103574 -0.017409528548796516 0.059007105402997695 -0.028832210846303497 -0.007647710623132298 0.020633736661693547 0.052937128755729645 0.005088552483357489 0.0028617407515412197 0.015113915871552308 -0.042118029450648464 -0.030204012040485395 -0.030919181313947774 0.04064704459051427 -0.02388114073255565 0.018300961967725016 -0.06663803674746305 0.01277909315274428 -0.045028668908344116 -0.030436370005190838 0.013056666830379982 -0.044761940676835366 -0.02178134008863708 -0.027438445795269217 0.016582698764977977 0.020086939315660857 -0.027820560440886766 0.033682487715850584 0.036117057388764806 0.021934098160272697 0.0037129583724890836 0.014536400383803993 -0.015303921487429761 0.003258891694713384 -0.016228677858180163 0.01504545783973299 -0.025545955453708302 -0.034564224479254335 0.008948979897468234 -0.0382858895118261 -0.026468359035789035 0.0025488121318630874 0.012706671174669282 -0.0392823594447691 -0.010718453631852753 0.018820586787114735 0.008769486463279463 -0.00706730213460105 0.04031264570221538 0.041840168880298734 0.00214078051794786 -0.00932070318276601 -0.004045825028697436 -0.028314795541518833 0.02850102455704473 -0.042189267874164216 -0.003819833778834436 0.016809834478863195 0.03698900615927414 0.00025717583775985986 -0.04258490820211591 0.020574993284753873 0.018264498299686238 0.02576167558072484 -0.03523676889017224 0.020358163958007935 0.021894194407650502 -0.001356733209831873 -0.018403587612738193 0.02902671988340444 -0.04173604302195599 -0.00039323908913502237 -0.019669386212626705 -0.02563033479236765 0.0101414441705856 -0.038092147224233486 0.012910013072541915 0.016887104899069527 -0.020274715767300222 -0.012283571570151253 0.01469974476549396 0.013763028859102633 1.7619458958506584e-05 0.003780664992518723 -0.01254299256925151 0.029763112052023644 0.031119692168431357 -0.013176919623219874 0.006569282813870814 0.002983864407724468 -0.023818221714464016 0.049355907292920165 0.006931988759106389 0.022221431507205125 -0.008630687560071237 -0.0008823858224786818 -0.000853331894177245 -0.030580203481804347 -0.0136455850006314 -0.015335977144786739 -0.044954217031772714 0.014719157930812798 -0.003559393691830337 -0.02803349025089119 0.039257727046788204 0.011760730571495515 -0.020449054849450476 0.03139588248814107 -0.035906774501199834 -0.022110320929641603 -0.03559759707241028 0.010694761458580615 0.06070225912844762 -0.013247026206954615 0.011304906242003199 0.01458737022517198 -0.0027363294484530343 0.03457361412438331 0.03909391292472719 0.00022661171851723338 0.042547980236122385 -0.024783685155398416 -2.5759072741493583e-06 -0.022589332511415705 0.02731441144578639 0.008833920952383778 0.03012227252474986 0.04152538002381334 -0.011969963856245158 -0.013368879037443548 -0.03080568195309752 0.032415496818430256 0.004609438105035224 0.04961494329836569 0.020107612488573068 -0.007432568003423512 -0.03681764708744595 -0.0012003683659713715 0.03582912917408976 0.013754361690189398 0.019493693096592324 0.019910699635147466 0.015175831202213885 0.030516598890244495 0.03544991402304731 0.03340444012064836 -0.04519564477232052 -0.018217501798062585 0.02280865190550685 -0.002928969741333276 0.030028852092073066 0.017676664419923327 -0.02351748825458344 0.039192117317725206 0.030144272481265943 -0.013310542368344613 -0.03642881700443468 0.033495293675514404 0.02325627117897966 -0.01922636381641496 0.026617365139827598 -0.027468950793263502 -0.04482128081872361 -0.026294542203686433 0.019504439886077307 0.03894775569642661 0.005042772061642609 0.023679750855080783 0.003824451006948948 -0.029520576288632583 -0.03900029071587596 0.014827075370703824 0.016844085555931088 0.03973745358234737 0.038633574060895626 0.04706125111624715 -0.0014442768351727864 0.01026140966132516 0.0016741139420446416 0.0002494197615305893 0.015715726527560037 0.04346869463006442 0.060959510068641976 -0.05840776677359827 -0.017422332050045952 0.028627823687656928 0.004663221639930271 0.021667425746272784 -0.0465020064420969 0.005919390281633241 -0.02157029905174568 -0.006773272540158359 -0.01564870098081883 0.03763289767084643 0.031875927745204535 -0.019602682346885558 -0.011753895785659552 -0.011855264663608978 0.031231722256052308 -0.0173142463190743 0.04268151144424337 0.06096785292902496 -0.04173099405306857 0.015038619369079242 0.017496635075076483 0.037688787720981054 -0.0366159382101614 -0.011969162143941503 -0.005768289305706276 -0.010583220212083688 0.014345997145937872 0.03021302365777956 -0.011306625026918482 0.026031072993646376 -0.012494629052525852 0.026004603158071404 0.005481229134602472 -0.025199514097380415 0.0007001462727203034 0.024094108990539098 0.043737954707467 0.04424134839428007 -0.0331530422627111 -0.010374725614383351 -0.0029893351857026573 -0.022029608364391606 -0.04095393627358135 0.008257668552687392 0.010218459859970608 -0.030028888273591292 0.0032038211938925087 0.032301625706168124 -0.018653032314432494 -0.03433009106083773 -0.031514689804282625 -0.03188948331808206 -0.01920557639823528 -0.0032701235395506956 -0.012087019513273844 -0.057654332034871913 0.0020000848126073834 0.034997468153960654 0.05265844093810301 -0.02279027113763732 0.040395038842689246 0.016912322000280255 -0.044675490567897214
ambulance 0.029742154970087788 0.004275140855249695 0.02610459500548049 0.008831935093357142 0.0022269574798304925 -0.03513829862508415 -0.018892542289739304 -0.025526150849393824 -0.010020849824121053 0.024239876603877 0.0462573179975152 0.02416977717075497 0.017474222601528956 0.04455090745944868 -0.04974894629876045 -0.00955468926324763 -0.010416429077105766 -0.027905407414602287 0.0052406580758873715 -0.038669991941953245 -0.024896752639588984 -0.01387170983732424 0.003693591581064869 0.0012636173189755275 0.0402694401034916 0.05602915415709669 0.03528349825435064 -0.03047097008675337 0.03386034308509393 0.0019292754692618143 0.05908265130975368 -0.026057715570046144 -0.025545778779566965 0.02775283671111207 -0.030720726594815707 -0.023515623586717993 -0.03054156698371199 0.0238282800339882 -0.009593469141691457 0.004536795927296308 0.017016593070531435 -0.023524435263508083 0.0314417566637117 0.05263441489924761 -0.07746514170007272 -0.05106744288720868 0.04508339018899609 0.020464838328982958 -0.017611488377125086 0.0326726206542596 0.03905589364215054 -0.026384703698568046 0.025981401670089162 -0.003977146829129197 -0.05289056727832014 0.055330751379105175 -0.004645110213790427 -0.042425688821822405 -0.005471400493247943 -0.002269618218468333 0.030718440806429662 0.029366971184076232 -0.013503639228557322 -0.0281706490627998 0.04327671452615918 0.04165998355231502 0.021702568978071213 -0.0048446261101741 0.036331229927864944 -0.02783568629423495 -0.0372338448651135 -0.035810499658427114 0.010058102303777228 -0.011675897480348463 0.02879547298123891 -0.03514187638542022 0.04590128297092055 0.01630604327973825 0.04137113310439004 0.05426644102077593 0.03950769061603668 0.016854282092853366 -0.02983251224610616 0.04649798742453144 0.025991607399191707 0.03308141234729398 -0.024227007673206655 -0.05509801474611529 -0.040486790419725534 -0.05016644567843865 -0.022528585723855278 -0.008663486435332081 -0.009643261151557619 -0.03369644227099012 -0.015294489546001634 -0.022442540917836595 0.03811083669477904 0.04182701144071126 0.008996751717693935 0.019900162852453916 -0.028062007696875793 -0.006657152510756118 0.005272095250389116 -0.00722607095006176 0.031955851771106776 0.02740273108197884 -0.033328103462488136 0.043337592791596595 -0.04793885178779336 0.020378077404033815 -0.04174189612438733 -0.0250190776264803 0.05311327425509014 0.0291228896768933 0.036786008155269716 -0.04485797301855531 0.03095779235644097 0.03258341596334834 -0.028409508205103604 0.01812543584541841 -0.015829233803246592 0.02606335797728124 -0.012791407511527226 -0.012901024895572018 0.014536990064450285 0.02092646231705492 0.03329922512850978 0.02588760954412547 -0.021190689368681473 0.00849002639403228 0.047006671025883406 0.06793725717050786 0.006322722331705419 -0.06087526760529727 0.019080810484328223 -0.020614496448119593 -0.042489826381576924 0.0014364507514983416 -0.04100739363242279 -0.038492016536606985 0.056198269901373846 -0.023344150291946295 0.000294833571057428 0.012976431880484928 0.03416074222795115 0.01688997318375517 -0.027271474480089222 0.013236553683368997 0.028114858845418148 -0.021539718621749093 -0.03942232766315679 0.01638170569309626 -0.02632883298528296 -0.02398569828999991 0.051225907719609415 -0.009283996716311032 -0.0132396157449958 0.015365013916214759 0.014295209569602528 0.006238147933882746 -0.0023475236508106304 0.04072872565963983 0.04965710457922383 -0.024057817031544717 0.01017378693954511 0.006586880539543927 -0.0012114289513027127 0.05710586448284713 -0.006346664068670097 0.0021192507331513548 0.007513313699746504 0.014022329388932452 0.004593718426556073 -0.02208811324354346 0.058148319070989433 0.013829451001418585 -0.014528688847679983 0.011546356190757995 -0.016426470755091446 0.04050716365137222 -0.013191094616062897 0.04401609406340867 -0.04631632300689406 0.05975557543834756 0.028202700936658817 0.009872241125942144 0.03776930515993048 0.04107737448066473 0.012881554065229879 0.019830463406502862 0.08010367947545918 -0.001306861800416796 0.03152952472869815 -0.027883268462822096 -0.02734574265989729 -0.046800861791284246 0.004311018919741566 -0.030380172570320694 -0.040101803077215496 0.046371239152821625 -0.0172906785631891 -0.02390880345112898 0.018056165786798705 -0.03177691220745063 -0.045622831718488174 -0.028960698855702172 -0.0006010489411313425 0.00843004146802493 0.022271641678261487 0.018280514230189674 0.008483780262229795 -0.06754590922686145 0.019056449599288913 0.037087260618467226 0.02273642528929155 -0.014118407588367436 0.005241871726783839 0.012938532523218204 0.017945353280414234 -0.003896607586119155 0.0663877300156111 -0.020872979996387254 -0.029874980507884175 0.0313836370240262 -0.02995397708714749 0.005223950953222811 -0.028302342649443413 0.014852771077791906 -0.01482062092558904 -0.05448314740153199 0.013495380061530423 -0.018909767460585994 0.02560769957331517 -0.03185244741722603 0.027038647010075776 0.043326025320725006 0.030674984932623127 -0.005158262433145534 -0.01137862151848491 0.02598718475201167 -0.013586328597739339 0.028132702435620806 0.052876126021146774 0.04439606064591895 -0.020998665315511807 0.028844647109508514 0.022163056196983565 0.018569878048517487 0.042800499528477136 -0.03521889681525698 -0.008303877664729953 0.005386113055878509 0.044890301788903096 -0.02755397124300626 -0.0385220816612921 -0.004025980822255157 -0.018622567316263237 -0.03664611563594504 -0.0578770195980641 -0.0024974020621316 -0.015473043712766164 0.03162066428922117 0.044584757219788364 -0.03756861813070083 0.015006043725985695 -0.028405434555183587 0.0017974140355363488 0.044160317396745086 0.004638550168072636 -0.022984497180335562 0.03308496715246954 0.013615987226578662 -0.033729319725270296 -0.018561975564807653 -0.013626669896025718 0.028982008235867728 0.027395103187617762 -0.02637119448362765 0.04142218758352101 -0.021453818017934365 -0.04922451311722398 -0.048942435985240576 0.012508573029249832 0.05197268910706043 -0.04086912860988046 0.010170217920941386 -0.055499788373708725 0.004533708190799437 -0.03247458572414788 0.03925516875460744 -0.019775114561939103 -0.05038803000405261 0.05111730602485212 0.03110346697609533 0.028077792185782033 -0.054185139226981184 -0.01090464935276197 0.03980872394855727 0.0023676428404128687 -0.013493627002886073
anchor 0.018150441674515606 0.03571891374886036 0.024124249815940857 0.02957018818706274 0.021202539862133562 -0.04630049532279372 -0.012054377660388128 0.04763781726360321 0.025022880954202263 -0.0009785043075680733 0.04262800143915228 -0.004537060344591737 0.026898637996055186 0.04722964465618133 -0.01883847452700138 0.009489850420504809 -0.016828986001200974 0.009597198478877545 0.002753382967785001 -0.001583549939095974 0.02859532991424203 0.02705715773627162 0.004002146592392819 0.013481909083202482 0.049460646230727434 -0.003981804801151156 -0.006378875987138599 -0.03605595482513309 -0.0390561243519187 0.062155069597065446 -0.025871123373508453 0.03347901813685894 -0.02203713096678257 0.005223429936449975 -0.02935620122589171 -0.05661495276726782 0.012447606981731951 0.0387294570915401 0.022541304607875644 -0.028040346805937588 -0.023331629368476568 -0.03525111330673099 0.014461811166256666 0.00789723889902234 0.03283128794282675 -0.023781991750001907 0.042326124757528304 -0.03465388545300811 -0.06297188410535455 0.002836383518297225 0.03209678176790476 0.016041136370040475 0.03863556738942862 0.003749704803340137 -0.07188233043998479 0.009250229271128774 -0.0004352258751168847 0.026278981612995266 0.02199460391420871 -0.012768233043607325 -0.027331985346972943 -0.006762707233428955 -0.018661654694005846 -0.015143413608893753 0.031402073334902525 0.012840387411415577 0.041007202491164206 -0.008861739016720094 -0.030336824315600096 -0.0010774324215162777 -0.005235272832214833 -0.009959398562205023 0.00950092589482665 0.012195416766917332 0.00021532236132770777 -0.007894068583846092 -0.02138518732972443 -0.003021034970879555 0.0005485037807375192 -0.013516292814165354 0.0039097143337130545 -0.04920559510355815 -0.020330134383402764 -0.007511762494686991 0.018384940177202224 0.0659972719848156 -0.043821295537054536 0.003751062136143446 0.031032439309637994 -0.025750542990863323 -0.01865690406411886 -0.032946068607270715 -0.035131807229481636 0.025189298670738935 0.022139353584498166 -0.02374783777631819 -0.0062217825092375275 0.020767349191009997 0.028608301235362888 -0.024899979447945954 -0.06592004485428334 -0.0307621612213552 -0.011478085583075882 -0.014547990169376135 -0.013708653207868338 0.005000719428062439 -0.031019809492863714 0.015198508091270924 -0.046959488093852995 -0.04250073777511716 -0.01932403026148677 0.01993063036352396 0.0388752487488091 0.015256023313850165 0.006520218867808581 -0.04119827661197632 -0.01729602855630219 0.03359570098109543 -0.057160642882809046 0.034382094815373423 -0.024800371867604552 0.04687501061707735 0.023407027590292274 0.014058653413667344 0.005651479703374207 0.011777542438358069 -0.014683168288320303 0.008708529733121395 -0.031313131179194896 -0.008169237058609724 0.04243625532835722 0.06634975560009479 0.000247671827673912 -0.04528520964086056 0.017936102487146853 0.05643152161501348 -0.03049168622819707 -0.03612909512594342 -0.013572861813008786 -0.04475420326925814 0.00939817987382412 -0.050466076377779244 -0.013995014922693371 -0.0416699125431478 -0.0013169133570045232 0.012976776342839003 0.02377051367657259 -0.04735238617286086 -0.029458899656310676 0.001450633688364178 -0.013537431694567203 -0.016813801939133555 -0.03452831194736063 0.018413998640608043 0.038445381144993004 0.0105094064027071 -0.03678289842500817 0.021302580810151996 0.019775397854391485 0.022421255894005298 0.047621809598058465 -0.02588825123384595 0.03631878737360239 -0.013527553342282773 -0.0025644904002547265 0.03587108897045255 0.02362270951271057 0.04677947908639908 0.036502140760421756 -0.04028231976553798 0.01807337342761457 -0.02624208019115031 -0.03824436828144826 -0.023748069070279598 0.0275014434941113 -0.03610396087169647 0.02011981550604105 0.02609384059906006 -0.04938881932757795 -0.002873881143750623 -0.006751779874321073 0.006054338475223631 -0.02748487386852503 0.02726393215707503 -0.020653313328512012 0.014898965507745743 0.03132230080664158 0.030568880029022694 -0.016405920684337615 -0.0309876031067688 0.01693786063697189 -0.046334072947502136 0.032103004696546124 0.047233380156103524 -0.01894668354652822 0.02136738826520741 0.011391554214060306 0.0004947071662172675 -0.009458182286471129 -0.028504941333085298 0.04109576791524887 -0.002024125587195158 0.0390426326659508 0.030571030284045266 -0.03842561580240726 0.015206966921687127 -0.03779830479179509 -0.0113122736569494 -0.02431773757562041 -0.04825940971459204 0.0057328097522258755 -0.05508893314690795 -0.009593392210081219 0.021995163336396218 0.018105135206133126 0.018343368798377925 0.03258590210461989 0.018199964135419577 -0.020459259627386928 0.02811904759146273 0.0370921928435564 0.024340802477672695 0.01595034117344767 0.03694876879453659 -0.016242547845467924 -0.03850156022235751 -0.0044055084697902204 -0.0245848779566586 -0.03654033929924481 -0.02029995545744896 0.0015883273968938737 -0.03979287130641751 0.03623458095826208 0.0063505358528345825 0.018337870674440638 -0.032284715306013824 0.003748502302914858 0.07387858903966844 -0.043508210126310586 0.042744249757379296 0.06037272098474204 -0.02157446207711473 0.017600628605578095 0.02540455888956785 0.03404970795381814 -0.030641099065542222 -0.019859652034938335 0.023509401828050613 0.007283185189589858 0.027059849386569114 -0.016662034019827843 0.0158039023168385 0.015827915584668516 -0.055589468032121656 -0.019433438079431653 -0.011441688798367978 0.016530708083882927 0.014287208579480648 -0.0006794595159590244 -0.01880955509841442 -0.008499987446703017 -0.019100688816979527 -0.010260380106046796 0.0017968222498893737 0.027753689792007208 -0.010915061691775918 0.053240615595132115 0.026619772566482423 0.017995736841112376 -0.003992989147081971 0.022664145939052104 0.0018945511430501938 -0.04954930464737117 0.020165159157477318 0.04719269247725606 0.011087652249261736 0.030211882875300945 -0.028323641722090544 -0.00420280103571713 0.0021276814397424458 -0.03949519764864817 -0.02751862946897745 0.011686201364500447 0.02525589885190129 -0.016531991073861718 -0.02736635998589918 -0.061443532537668946 0.013192657381296158 0.008053356152959167 0.018530845083296298 0.023273442010395228 -0.027571514155715703 0.002334734983742237 0.012684505060315132 0.031593422405421734 -0.04472131738439202 -0.034809252433478835 0.023442847887054086 -0.029971505934372544 -0.00798648651689291
ant 0.008529497624840588 0.0015535463113337754 -0.004876063269330188 -0.018350349110551178 -0.013374105747789144 0.041680153385095765 0.0006817278219386936 -0.00718060351209715 0.010990452859550715 0.0034301093546673656 -0.031134497805032878 -0.05217461225111038 -0.0054633636493235825 -0.002122806599072646 0.007704537594690919 0.05485047071706504 -0.014336431794799865 -0.0020774048287421467 -0.030225864285603164 -0.002018945894087665 0.007929502427577973 0.03970805804710835 -0.012331309693399817 -0.04752018903382123 -0.011655118118505925 -0.01820036240387708 -0.0037305251229554416 -0.012935605586972088 0.025356408367224505 0.025740749016404153 -0.03819398446648847 -0.029391127126291394 0.012410805386025459 -0.0009291778318583965 -0.039335263124667105 0.036560301113058816 0.03822110536275432 -0.0071810247842222456 -0.028872716529440366 -0.005499602435156703 -0.00430498449713923 -0.022724277479574083 -0.02126814840157749 0.029009204567410053 0.028802382919093362 -0.04446564936079085 0.028741111839190127 0.033766771154478195 0.02986224755877629 -0.0370694356970489 -0.04940975456847809 -0.014795706485892878 -0.021553021064028142 -0.0205814759247005 -0.003233874476427445 0.028060384723357857 -0.035031739808619025 -0.009956945572048426 -0.001969513378571719 0.036801215406740084 0.019219307322055103 0.021679328614845873 -0.023728632158599793 -0.0018314113141968847 0.030622238712385296 -0.016237353486940265 -0.00643372016493231 -0.013613948383135722 -0.0287245828891173 -0.012805809313431383 -0.023834650649223476 -0.0003825644846074283 -0.012591190147213637 0.03327214528690092 0.005446336418390274 -0.03631502541247755 -0.024602425610646607 -0.015680217090994118 0.004596952366409823 -0.02372775096446276 0.02777800599433249 0.04102354968781583 0.044476077368017286 -0.0011605173349380493 0.023138277092948557 -0.026666893594665453 0.0028171732992632315 -0.02448013424873352 0.008823832194320858 0.003502059751190245 -0.016229576314799488 0.02822533074649982 -0.009983690339140594 -0.03674940688943025 0.0207329240598483 0.02029994672629982 -0.021017884330649394 -0.014390653348527849 -0.01408146449830383 0.034011146822012964 0.011597373895347119 0.04703209171420895 0.019735418376512825 -0.001442989008501172 -0.030080990443821065 -0.03465632678708062 -0.007361792866140604 0.020616955170407892 -0.002479707635939121 0.007581320000463165 -0.0036079779187275563 0.0137160404905444 0.01652289179619402 -0.006871496001258493 0.02856487766839564 0.0065422635292634364 -0.024353244446683676 -0.042011375294487154 -0.010630723438225687 -0.005257235636236146 -0.037615518191887534 -0.03969011778972344 0.019930814346298575 -0.02305137813091278 -0.042405498959124086 0.008321033604443074 0.01299426956102252 0.04393574027344584 -0.000884904246777296 0.01930135046131909 -0.00749686926137656 -0.04156546113081276 -0.033775783982127904 0.009891179692931473 0.0017480272228567629 -8.600816945545376e-05 0.015730339870788156 0.0008725055144168436 0.03134602615027689 -0.0026491033495403826 -0.02128392714075744 0.015551429172046483 0.013350238735438325 -0.00030435576918534933 -0.007805914152413607 -0.0005061275369371288 0.008524635434150695 0.004305451083928347 -0.020466284872964025 -0.01699011519231135 -0.01297470043064095 -0.04130789637565613 -0.024595444317674263 -0.011841783195268362 0.025626757438294588 0.0009217920480296016 0.03436532513878774 -0.006469344889046625 0.038452586601488294 0.0054467784008011225 -0.008854845445603133 -0.05470616472885013 -0.014323997148312628 -0.0416864933911711 0.019070898671634494 0.026323134021367878 0.0025314760336186738 0.015508273942396044 -0.025511585036292674 0.022358236415311695 0.011590958875603973 0.026795915950788184 0.010446956881787628 0.007200225139968097 -0.021927120978944004 0.0034206531825475396 -0.011573786480585112 0.027126688533462583 -0.0013075738708721474 0.02857804407540243 0.008068910473957658 0.03673297259956598 0.004419113654876128 -0.006853987800423056 -0.023569538292940707 0.002198332315310836 0.009159422828815877 0.03940030413214117 0.03133495333604515 0.009481834550388157 -0.01735148918814957 0.027938082345644943 -0.012066357520234305 0.007992049161111936 0.004890729472390376 -0.015787344815908 0.02599397422745824 0.04770673629827797 0.04110175925306976 -0.048837666702456775 0.0018452697549946606 -0.009957231068983673 -0.018990815320285036 0.04126788452267647 0.0012322827940806746 -0.027837663863465423 0.022316764388233424 0.013110731105507511 0.0108281105523929 -0.05064967030193657 0.02162248669192195 0.03052665772847831 0.0409734852204565 0.007688275643158704 -0.031516046123579146 -0.04203854831284844 -0.008797651587519795 -0.0025361528270877896 0.02064325480168918 -0.030327194451820104 0.01247294615022838 -0.028604755675041817 0.03415646955836564 -0.03630700109351892 0.00734014738118276 0.041160214319825174 0.0063855666143354025 0.03191895682248287 0.002671130109229125 0.016342511877883225 0.03828218993730843 -0.009391742805019022 -0.02564236626494676 0.03282334312098101 0.027373852871824055 0.048891556967282666 -0.014150731696281582 0.01576008091215044 -0.005082558994035935 0.008606706163845956 0.010991179966367781 -0.015170123433927074 0.013566738250665367 0.02598870887886733 -0.04948753046337515 -0.04972512256354093 0.040934188198298214 0.026638694922439754 0.005076764617115259 -0.007669269980397075 0.010858933994313702 0.023584531154483557 0.014815851609455422 0.025657072383910417 0.017636669223429637 -0.03936887051677331 -0.007139773073140532 -0.016660049255006016 0.0312184413545765 -0.029585529468022287 -0.04577793191419914 -0.02318937280215323 0.011202323413453997 -0.035952010372420774 0.03758777168695815 0.005845049163326621 -0.0018290834967046976 -0.02082395072793588 0.010946755739860236 0.021291438621119596 -0.00981346188345924 -0.009011249395553023 0.007531504821963608 0.015503686934243888 -0.008430973440408707 0.00014869592123432085 -0.016929103567963465 -0.002992701082257554 0.021859332313761116 0.00033610378704906907 0.01937744400347583 0.031917910138145086 -0.044383758411277084 -0.03882854641415179 0.01748848247807473 -0.04246763670234941 0.015006277787870203 -0.030005332361906768 -0.02236375251086429 -0.04892613916308619 -0.03074570563621819 0.013463571597822011 -0.038831194944214074 -0.023746778001077475 -0.03168680159142241 0.008954521920531987 0.004166242462815717 0.03662210725015029 -0.017509727226570248 -0.02630076337954961
apple -0.04056331932952162 0.0564914233982563 0.002364117040997371 -0.03601422914653085 -0.0068719221744686365 0.036733437998918816 -0.055973645621634205 0.02229130212799646 0.011151684648211813 -0.007779521867632866 -0.03737399261444807 0.030719127926658985 -0.05320408933403087 -0.011396232883271296 0.05533025972545147 -0.019361588962055976 0.00914640908013098 0.029145637177862227 0.031203236929286504 -0.020482875101151876 0.065423947526142 0.017703476522001438 -0.010213377601758111 0.05426768596225884 -0.030979111383203417 -0.05776773183606565 -0.007449610344337998 0.04088364407652989 0.020821544661885127 -0.06174215895589441 -0.028527786605991423 0.04632413023500703 0.04796303823241033 -0.02095928033304517 -0.012073960810084827 0.046271267830888974 0.017115147376898676 0.005977067266940139 -0.05539043870521709 0.0375842181238113 -0.025819056007094332 0.02962487528566271 -0.017174233940750128 0.015147597863688134 0.02159319241764024 0.05182993260677904 0.028944734251126647 0.007921042051748373 0.03759969139355235 0.017295326324529015 -0.04452876758296043 -0.05472651566378772 0.0051840794330928475 -0.036317412203061394 0.06367737567052245 -0.059827300952747464 -0.023865973256761208 0.04022904438897967 -0.05094479482067982 -0.021873619156394852 0.02046657770733873 -0.021692509442800656 0.039479102357290685 0.023753302521072328 0.0058847998807323165 -0.0288152795797032 -0.03933280415367335 -0.007212682085082633 -0.034449686647349154 0.05967583166784607 -0.005754736761446111 0.05049663281533867 -0.0232273954206903 0.027159926935837575 0.003945743985241279 0.01302066631433263 0.0065847079386003315 0.04391526911058463 -0.039885860172944376 -0.035202911181841046 0.017667764659563545 -0.004300733970012516 -0.005978619316010736 -0.022996984515884833 -0.027077397156972438 -0.04041340260300785 0.036423752215341665 0.04427034143009223 -0.058091812301427126 -0.016734860342694446 0.04338866379112005 -0.0557280401699245 0.057349471375346184 0.0451643246342428 -0.0465157346916385 0.054902388830669224 -0.014998360826211865 -0.01606011760304682 -0.028614462877158076 0.0325031036263681 0.05073277726478409 -0.041598148352932185 0.04806600825395435 -0.05666813472635113 -0.027166107611265033 -0.031390837699291296 0.03294330405333312 -0.020236462962202495 0.052046078140847385 0.03243762141210027 -0.060475639256765135 -0.033298183989245445 -0.04874197354365606 0.03727871437877184 0.00040134417940862477 0.02631745653343387 0.007200761540161693 -0.01153031352441758 0.04168959932576399 0.021621094725560397 -0.04095918709936086 0.058785703498870134 -0.0771773454034701 0.002185715438827174 -0.011529784693266265 0.01700879130657995 0.053109366504941136 -0.004704300205048639 -0.005579743257840164 0.00803692132467404 -0.05481240543304011 -0.02624529373133555 0.028198532498208806 0.02730267879087478 -0.0360769692924805 -0.05516024157986976 0.027921710701775737 -0.03424539917614311 -0.03683654413907789 0.012042132846545428 -0.017541105757118203 0.04957955266581848 0.030297181074274704 0.027750835331971757 -0.04324113028269494 0.006819560008807457 -0.03133618482388556 0.054479489888763055 0.0023129589462769218 -0.004385622654808685 0.04957696816563839 -0.011589034867938608 0.06533419113839045 0.03842925946810283 -0.04744176715030335 -0.04363668503356166 -0.03857630804122891 -0.004304179266910069 0.028548550471896306 0.044219902163604274 -0.044629708892898634 0.05106316728051752 0.04771390433597844 0.02900910732569173 -0.03416374946391443 -0.02790844211995136 -0.0019219983150833286 -0.05384697710542241 -0.008369351722649299 0.054252060152066406 0.03459305636351928 0.030213673984690104 0.02013771081692539 -0.01787597651127726 -0.040678635268704966 0.004955590644385666 -0.013563141372287646 -0.03518482901563402 0.012244128247402841 -0.04022157679719385 -0.015661240118788555 -0.0008116655662888661 -0.00437732466525631 -0.04185531564144185 -0.047458148561418056 -0.05931010382482782 -0.036842263256403385 -0.04239003390466678 -0.05000622241641395 -0.02601915068225935 -0.030198281107004732 -0.013725761065870756 -0.008828758102026768 -0.030992810003226623 0.006919767693034373 -0.015123933440918336 0.034583479558932595 0.01103830337524414 -0.06472479167860001 0.024007133113627788 -0.03625558715430088 -0.054086594900581986 -0.010380414736573584 0.027622065390460193 -0.010396215995569946 0.02192065769486362 0.01749524894694332 0.056423881874650306 0.06169168860651553 0.05388463940471411 -0.03908264412893914 0.05410729606592213 0.061240327086125035 -0.012991678697289899 -0.06561366480309516 -0.003355920489411801 -0.03501449871691875 -0.03365328867221251 0.00959827599581331 -0.003951526086893864 -0.05818101129261777 0.005381112096983998 0.034978245734237134 0.0411589190189261 0.056350261671468616 0.014944209367968142 -0.005206086876569316 -0.029062256158795208 -0.04441623999446165 0.014900945439876523 -0.04293973886524327 0.0009588183529558592 -0.02536522958689602 0.003416973282583058 -0.05587618378922343 -0.035983627574751154 0.015841780201299116 -0.064863441279158 0.042254074913216755 0.020035964058479294 -0.034060313755617244 -0.05089747568126768 -0.060170900309458375 -0.04441912361653522 -0.032789059296192136 0.020080236485227942 -0.029249898427224252 0.01582024630624801 0.005108596400532406 0.022588887659367174 -0.031081903842277825 0.0005705589646822773 -0.02279150683170883 0.007118867164535914 0.021247050222882535 0.037558472491582506 0.006163765880046412 0.014378262261743657 0.0422078106457775 0.030170698184520006 -0.002475388435414061 -0.027901055898837512 -0.015019254841718066 0.03659509980934672 -0.04938073855009861 -0.03246207325719297 -0.031076008948730305 -0.028423652900528396 -0.05071911832783371 -0.025131305534159765 0.0016564307443331927 0.02468915940335137 0.012411096977302805 -0.011911450001207413 -0.058779053775651846 0.022551463276613504 -0.020487036810663994 0.029884532170399325 -0.035632604121929035 0.06867216690443456 0.01461899008427281 0.03350978728849441 0.039405492279911414 -0.01246400160016492 0.01537897702655755 0.058655180133428075 0.05576928328082431 0.035250741020718124 0.03548308162862668 -0.027363969925431775 0.029713724477915093 0.06241357221733779 -0.037046986690256745 -0.053482087154407054 -0.045005195495832595 0.007017463489319198 -0.0008430972811765969 -0.05386590480338782 0.003168794617522508 0.05124242027522996
apricot -0.027504939066532712 0.02106043932816157 -0.00014782987105158658 -0.04001932820448509 -0.02534989296243741 0.019093949634295244 -0.04706357817317789 0.015738606372346673 0.008558354125573086 -0.001918057373796518 -0.030796161422935817 0.003978912090063274 -0.05628224723757459 0.0019634409377781246 0.05040043044405488 -0.008473085745488508 0.00900337379425764 0.027860337402671576 0.01627436415023672 -0.0411106245413136 0.06393775863286394 0.016327116942892853 0.007762804537868271 0.06684764832831346 -0.0512797049461649 -0.047308712338025756 -8.327286027801725e-05 0.02307082275645091 0.021879278351731885 -0.05596625761917004 -0.026608005488434665 0.03744158621590871 0.06286997706271134 -0.005190157515104287 -0.021298462542920157 0.043416463232670836 0.042844954484070726 -0.01081986608915031 -0.06440569274127483 0.054119884681243166 -0.024217184140490226 0.04881187890154811 -0.03402828382184872 0.015526904258877039 0.01849138679412695 0.05245055412300504 0.01793158699113589 0.014960493713330764 0.038156201489842854 0.005501527446680344 -0.048551188208735906 -0.03970049578772607 0.0053640342532442166 -0.02443331813153166 0.06077116233511613 -0.060657205346685186 -0.021734035328755945 0.02363778192263383 -0.05014275870500849 -0.027440043452840585 -0.0077444229951092545 -0.054494546905446514 0.04709038833299509 0.029163905920890663 -0.010970980949843159 -0.015924715369832344 -0.057648649582496055 -0.0089762826056148 -0.03765260897657404 0.05143544221153626 0.0037216095683666375 0.052664134078300916 -0.026769399248923246 0.02243855887018771 0.024028776929369017 0.013659054764922565 -0.007525262781060659 0.04697620349291425 -0.03931538960359131 -0.05069637142766554 0.009746611234731972 0.007619487323189298 -0.01713254852578617 -0.005384657173775709 -0.01883651788991231 -0.03311514188177311 0.03468755619206394 0.03344903295286573 -0.046630636197873034 -0.016322150548848394 0.041651176646924935 -0.03237180420770668 0.05161296683721817 0.03792791648839529 -0.042856356200690456 0.058618103368924215 -0.019155778134098418 -0.043129620572122246 -0.03362053589752087 0.0381938651150379 0.062053401936562017 -0.006315468165736932 0.04497478773387579 -0.05827387766196178 -0.03461198999474828 -0.03394391916047495 0.04046706403963841 -0.020623896181440123 0.043845706476041905 0.04216065350919962 -0.0586845229129092 -0.02324539229560357 -0.05302385799586773 0.051613105031160206 -0.0016147674132998174 0.03460467173359715 0.0019005384867621334 -0.004971964857899225 0.0400079322190812 0.022962736413599208 -0.04492078164520745 0.04499848930236812 -0.052210140615128554 0.017410744451738607 -0.019990338728978083 0.01049283562371364 0.05333859623911289 -0.008856721150760468 -0.01587275634161555 -0.0040600449563219 -0.04954402433941141 -0.0299060268041033 0.03806805746773115 0.031458664004905865 -0.02062758178306887 -0.044271258637309074 0.03676673234440386 -0.04070803279486986 -0.03261517973330159 0.012866514081207033 -0.003541970571789604 0.04535602681482068 0.011208971747412132 0.025362331993304767 -0.04448933140016519 -0.0003510279840646455 -0.03603815774504955 0.06149594131140755 0.03405775179943213 -0.010893236380070448 0.045655741571233824 0.014572356397715898 0.0534932137055036 0.02715197452702201 -0.05868655489757657 -0.02426056069536851 -0.031732129147992685 -0.01128868104961629 0.05082926920686777 0.03460023638147574 -0.04300245929222841 0.0542372059291945 0.05977358232037379 0.024188234040943477 -0.028038585665993966 -0.03587838527388298 -0.013292610018442456 -0.0382468731303771 0.00014928263576271443 0.04155100023266501 0.04166826931759715 0.039372901969517655 0.03730858428976857 -0.016604414567924462 -0.0430162030702027 0.005095044437509317 0.006858319187393555 -0.0489723588196704 0.01968951851337736 -0.0010425299943353122 -0.02825297789576535 0.01298681186297192 0.004357435337554377 -0.032126921721590825 -0.04747373229250885 -0.04747277003927873 -0.0538873106885988 -0.05289363056922761 -0.055164165866489596 -0.041293550605097644 -0.03651858038770465 0.0003017847865031889 0.009077898181903247 -0.03498526868553689 -0.0017624140466348482 0.005320041225506709 0.03996843563464399 0.008679663368429128 -0.039197513582901314 -0.0005922383145214274 -0.04187839102143279 -0.04947953327344014 -0.026269033300475433 0.01748810481065168 -0.008040764691451421 0.01292814811369261 0.012150450197693247 0.05254722834965483 0.04032467248348089 0.04625086335895153 -0.0349814360244916 0.059968061494426086 0.053287088100870066 -0.017060872830020692 -0.0682316582936507 0.006126993538390917 -0.03688379781893813 -0.04867567000194238 0.01789899919038782 0.006486484852547829 -0.05010852303642493 0.030181359589243166 0.04826192825566977 0.023059698108297128 0.042171479902418256 0.007032117701153486 -0.004162797149127493 -0.0007195324063874208 -0.02945221052505076 0.028692259918898344 -0.030308892054913137 -0.01486505524147875 -0.01456543835453116 -0.006185048969480424 -0.0425841250958351 -0.03923588231779062 -0.009039121894882275 -0.05927683928838143 0.045692331659106106 0.004597776497785862 -0.04473388505217512 -0.046373235778166697 -0.05540733376088051 -0.03178581282890473 -0.03439192550006108 0.004926337090392525 -0.011025989660993218 0.025967859877989843 0.03237101853860972 0.015430220259496799 -0.040043030077448256 -0.004657377488911152 -0.03659835264373284 0.007808655545187111 0.012013802340684028 0.03276756941340864 0.007854699730299987 -0.017021958232642367 0.029487064967934903 0.009231427147124823 -0.005726849875197961 -0.0371062162762078 -0.0040909964591264725 0.04289438403569735 -0.046361019351304725 -0.03212241140695719 -0.04939216572361497 -0.020942908774416607 -0.045576068393599525 -0.019073832851762954 0.0009179798563799033 0.03327732826941288 0.009132441598922014 -0.021382952144799326 -0.06429428764833854 0.01738814740943221 -0.013975858365973601 0.04425745382188605 -0.03721006870126495 0.062474493152247026 0.0019492350805264253 0.036718613987501994 0.044265938869032725 -0.014311100356280804 0.024437293316273447 0.06460833477859314 0.04393552442511114 0.033127943913523965 0.016696042417047117 -0.014526988460252492 0.02008381109827986 0.07219888298557355 -0.026863525335032206 -0.056620506927944146 -0.043952495146256224 0.007395979679691104 -0.005596561608119653 -0.06522114866843018 0.011140613064456444 0.054854353746542565
apron 0.02506804749753107 -0.022099829648676163 0.019828386440434876 0.04016875211313805 -0.016453665338785332 0.007497387099326314 0.03291134722530842 0.006752839257173678 -0.02048296933336293 -0.01416002819314599 0.004547842620762394 -0.005783338469507939 0.03151436289772391 0.016365721383515525 0.028358517981627408 -0.024845461580244935 0.017747085637358183 0.021854665513862583 -0.01595150208210244 -0.010787980993935728 0.002766059465048944 -0.03277777977671255 0.021511371576172465 -0.02637236733811305 -0.0017679456128355336 -0.005794828689164098 0.03308658322031774 -0.03221665569307173 -0.033651415642131775 0.042162210701088255 0.0465054539963603 0.024753646390950856 -0.011560822960318011 0.016868963070652065 0.012594208730768193 -0.05992719711845412 -0.02168854117831763 0.04280961054952487 0.03040909953415394 -0.0445004576108391 0.046140841317965704 -0.006604391615837812 0.02545699742896592 -0.03467641655793961 -0.028216002365190757 -0.03583245782647282 -0.008422386257306617 -0.007290623041198534 -0.01927318922517931 -0.005718209116500528 0.059571591377093946 0.01678765473051873 0.006385862046633573 -0.03948621846297208 -0.01012564469676684 0.0236423268695088 0.019606677199001697 0.005925714164999697 -0.013750506065073697 0.004063462585156017 -0.018232256947907016 -0.03163713134606095 0.028104353367405778 -0.008289047900368185 0.0015233243979951914 0.0130623632850235 -0.028297059635138688 0.03265497033648631 0.046904883648761934 -0.01502950580770095 -0.018951737335609162 0.011983676895718364 -0.0036629226387423627 -0.01680338004756349 0.03423391786568305 0.04256380267222138 0.03504758706206784 -0.00025595415054875263 -0.018276673495112097 0.0006830545470995061 0.022365088328061736 0.007565469347515746 -0.023054182145963695 -0.007743839434731533 0.023576035739525276 0.03286821225329357 0.011391521461465506 0.021788379917030826 0.009638251709368299 0.01967901151682086 -0.01799251785611405 0.008768218240755446 -0.025642402223585284 0.0446013561449945 -0.0002592065481140333 -0.006812959171571385 0.012046810253249371 0.029077723868848646 0.023548495900981566 -0.031209289616740802 -0.0014193400959758198 -0.018247014762463924 -0.04494131674223086 -0.009457257007906103 -0.01905106464126969 0.008140751434599651 -0.02732671899994945 -0.0033124866073622424 -0.026994365979643428 0.01485004459562547 0.020289445802678958 -0.018427143174716654 0.01786597883876632 0.05040115914102096 -0.014751310172655126 -0.015726516023278236 -0.005749404581044526 -0.04292170062442036 -0.004348622415872181 -0.023443575647166547 -0.02176275973632822 -0.021928248461335897 -0.01634235425359186 0.03447293188861188 0.018849296015961206 0.008675819396397428 -0.025595089557635432 0.03405227747691028 0.0629295524867142 -0.04498925678404596 -0.013951694606529438 0.011877941816826077 -0.022336761535638395 0.026430005262441495 -0.0006364591364913127 0.02357829625800471 0.00012584545594804427 0.008750665220705903 0.027406242676079273 0.019852505503770185 0.0017659184249008402 0.02088449943317648 0.016382647787823397 -0.01189075585673837 -0.02457627182935967 0.0030706355019527324 0.028220738198690337 -0.03080679231104167 0.007053717806497041 0.06398869785206283 -0.019181597895701143 -0.0317893451463212 -0.039724131772185076 -0.028274627183290088 0.024024067826651258 -0.005453737288275186 0.0045227525098358885 -0.0043902838883428455 -0.05230906082536368 -0.012778263032326804 -0.02675317841417649 0.039750993854421025 -0.02522683807720729 -0.007376760956557358 0.014247351819101502 -0.03311909779029734 -0.008502083994886455 0.04074392548543127 0.01467283004689414 -0.022268927628722263 -0.012705385931493604 -0.0023049463463180207 -0.02340871501056587 0.010814501766991965 -0.012958046870634836 0.026890303254784906 -0.00560169669744723 0.04517356550101848 -0.005500857581329697 0.0010143182623912307 -0.020902414600748348 -0.04057508970008177 0.0017352145480211167 -0.009062539676533025 0.03742723488796722 0.020836566794006264 -0.012477394381729776 0.010506101637421286 -0.014944082577986753 0.05071799407767899 -0.00864771515240564 0.012098965204238673 -0.02139146697214421 -0.022648920154418137 0.0015805686399450198 -0.004260222619289861 -0.0259035462513566 -0.028162257814341608 -0.007200699232806287 0.06445897639016895 0.014176798573530772 0.015753893346032676 0.014916313729961128 0.01353142871384454 -0.018988634760984602 0.01747126755414202 0.01151158256620607 -0.043431946459938496 -0.02381578946712098 0.02934221181032412 -0.015047305022188298 0.012801309917396045 -0.04443644673344405 -0.02503815238528392 0.0398872866130927 0.036163202377364916 -0.030394891441306648 -0.011421361445065807 -0.029004156725825264 0.02300389812957934 0.001019590808188214 -0.0043054241276181794 0.0004504539949052474 -0.01019789497641956 -0.03708128018907326 -0.04748584954615902 0.0019310230033143477 -0.04411495300283765 -0.0502839508904692 0.02451663606745355 -0.0325291690087932 -0.021517466452410993 -0.018012397881487712 0.008510665036737919 0.0159040167927742 -0.04308372410014272 0.03428529972648796 -0.03131828837863663 0.014248447533806457 -0.02499649427173769 0.024608123266850326 0.01032261538100155 -0.004698735021734405 0.04397172782131854 0.02479366841726005 -0.01381839915890904 -0.031531927162123954 -0.021718921985559386 0.03185409669052152 0.039775641826803196 -0.010010424152235775 -0.010990748890702996 -0.022430061225724572 -0.03795213059450308 -0.03411981879788287 -0.018399414695415867 0.010195848422453684 0.014503204133635497 -0.04353662272093489 0.04344787021331927 -0.015104749349548537 0.04953664311153047 0.0010986822410760557 0.020991529885898617 -0.004002332892816733 0.04724798598052824 0.0031629835584146134 0.020094692131833118 -0.005536676076350405 -0.049719648819197625 -0.01868971067425959 -0.003350100028054679 -0.020327212275279796 0.030158221954479814 -0.024533681667355055 -0.007639323114691412 -0.015602976850727025 -0.004737293190213249 0.031081325429327348 0.0020138635642497856 -0.006910415941520649 0.015931936527040842 -0.018449019983082134 0.028228901819709468 -0.05084714096258668 -0.028379471256972894 -0.027044346446500105 0.04033649510101361 -0.00024743065895403135 -0.01524165810962372 0.0275492919198073 -0.0023667358396136586 0.04528529114802094 0.028297678183983353 -0.01625881385167732 -0.02848982568556333 0.027963529619977206 0.014158354442128363 0.008774120744098635 -0.00447700742413016
arm -0.0402920771499767 -0.020761566469445825 -0.02218640990117017 0.022492029430235132 0.034689457840560114 -0.041264526103452014 0.01288448422051528 0.05878338086254457 0.042307140141287274 0.0419344277230694 0.04328857736168977 0.05187747209771153 0.0364667905275436 -0.027557975475621575 0.026963648495866972 0.01648460926833864 -0.028782376362120405 0.014392116072806804 -0.04129513002493802 0.015918172211112344 -0.005580333287498969 0.01888436869279865 -0.01730538671493859 -0.03217226307948723 0.036978834598010185 0.03294894679942552 0.05140172314884908 -0.01324671134352684 -0.024031992268967715 0.034621014643241375 -0.03057930977357661 0.019968726110057428 -0.02475809651043485 -0.03086061359328382 0.05193511884563657 -0.005716764724210781 -0.037709415999843794 0.006956648688013528 0.012217852903310867 -0.04448747948524268 0.040239486459861785 0.0008393869228551493 -0.0197237709619324 -0.00916101539726643 0.023396753986804363 -0.01122547997339793 0.0018402102869004011 0.02038204064592719 -0.051447754013626015 0.007024910807719126 0.03701232762678581 -0.013859342318028212 -0.027791744098067284 -0.02682454221169738 -0.029331425821189496 0.05059720104669824 -0.03762051605564706 -0.01641922498888829 0.05597811096402652 -0.00014345581396756803 -0.030022005002726528 0.020359050318160477 -0.009516944999203962 0.0023065603283398293 0.04453852482359199 0.00641652533565374 -0.002078141304938232 -0.03596535368877299 -0.008348174030235148 0.025133116198155808 0.022411327240714693 -0.02868290025371072 0.014850189673084328 0.0069977813674246565 0.005927213590920848 -0.008108991937821402 0.04645953011041617 -0.01470234288888819 -0.026088317536050454 -0.03428526765064282 0.002964510601219338 0.018522294765502652 -0.037975596565314955 -0.009226154032683767 -0.01660662001984961 0.022022278623326737 -0.006889674319502185 -0.009351171258672634 0.022680655299850246 -0.0005767979138695142 0.03356953194666216 -0.027955357721486294 -0.04175151197020622 0.010726742309463374 0.03690326884936761 -0.030582890869803068 0.02510535141781849 -0.025086226380046678 -0.003127859699923326 -0.023103678530520377 -0.016014862696037573 0.020413441693081576 -0.0275586972163771 -0.01815290277933373 0.01607110329410609 0.015384900465826778 0.00042114686220884323 -0.014713714193717083 -0.044801075449761224 0.020209545156617156 -0.041958962101489305 0.015146808630293784 0.027762027522412074 0.006361729218898451 -0.040597657070440406 0.02142763904788915 0.006646896856289138 -0.0374489056001253 -0.0066081269178539515 0.0027576251612866625 0.028661183547228575 0.0009308327537249116 0.027003830298781395 0.029619609087924745 -0.034178381566615665 0.036191431603209125 -0.04153558058554635 -0.03948125867720913 0.006900208262617097 0.036937462343998695 0.004026104449568426 0.029899939593365964 -0.03530540480963228 -0.0056571264285594225 0.04406384830637013 -0.027350111809723517 0.0058532707283602044 0.030694193788804114 -0.04177481900243198 -0.026350035352687186 0.012448987259310396 -0.014251512420528075 -0.04614834128605092 -0.030425418428528833 -0.006737363134401248 0.01894990483229134 0.014529736753662719 -0.02261310169363723 -0.04918013113167356 0.02362188121632618 -0.044835719019722414 0.038818554569254905 -0.01230363009381108 -0.0296195627648986 0.06643873001174892 0.002304364713114303 -0.020799326135174316 0.036360501871540156 -0.014335264403866056 -0.017530228559146908 0.004905526197570211 -0.02968550180358922 -0.021854602540021435 0.006739863619098768 0.011468854601844214 0.004817514622118324 -0.00974411643384134 0.038839045391582394 -0.03729121078161851 -0.010768169824800947 -0.028798463141463476 -0.05258839604828287 -0.02429262226146153 -0.018649280454744312 0.03296475692460423 0.02723755073897979 -0.05080026434734464 0.013394888565766023 0.004407772356096436 -0.007934002474511918 -0.033284353201880175 -0.00029323738999664783 -0.04036627096288344 0.0057312576511107825 -0.00835196501301492 0.04342587196322925 0.03213764190235559 0.035746195572702325 -0.018674317035166657 0.030270854781573528 0.0013460127417655552 -0.04130092087913962 0.0013958144357756658 0.04867720729945337 -0.033474517602692634 -0.04580803155241644 0.007994492093155928 -0.05376807386603426 -0.04946745208957616 0.027332570458597997 0.0009086375494542368 0.027665578979341424 0.03364518492975656 0.019589540322639924 -0.026242576964089975 0.019112181527923572 -0.023678678533007556 -0.03872594776946832 -0.04649915411958799 -0.008922907195108779 -0.04387484329259571 -0.07071016724084449 0.0212990228593459 -0.020192096694646514 0.028525033607044916 -0.013697620782562914 -0.018573125742156717 -0.012322990900215432 0.0467410570503596 0.006740580477258738 0.01230684170663795 -0.03114861436188221 -0.03211489286931122 0.023347279728006792 -0.009295555653379244 -0.01818123146864202 0.03407270140836344 -0.04427361872512847 0.04593331177773721 -0.011091226444798796 -0.023664354004294556 -0.023590008632334715 0.026524312013541076 -0.042230811983566076 0.00984214703716776 -0.025422250530134666 -0.0016027068828835206 0.014000868972610025 -0.011166173184071393 -0.007726592559586553 0.0035339155070045415 0.030142120934803698 0.0040101507158183 0.05485653510207639 -0.024573268067529973 -0.03084267201997778 -0.04090550772654002 -0.03157715052914094 0.018297321546603653 0.047064583236694005 -0.016031820052269136 0.00181606672156383 0.0218732490149491 -0.017348469235002995 -0.04079194806913352 0.004115747287869453 0.013855054892380448 0.017675551257151013 0.005199307401198894 0.039415224427905154 -0.03322313495856874 -0.05104487498893457 -0.010762702906504273 0.010923645274220583 0.01497572336537654 0.03155898132964092 -0.02733464230892851 -0.016406674184562528 0.03768183771685204 -0.014055852422162014 0.05029082956367775 -0.024594327503377023 -0.049151895512991095 0.015932994867291522 -0.033702194279826736 0.012693107511629076 0.02999901900971856 -0.010750244357897079 0.01839086101116503 0.026376768412506756 -0.006058565871653092 -0.002558874130687293 0.004122861811672063 0.040590261999408114 -0.028828453423236224 -0.04121418230180793 -0.031636102533572255 -0.015074178723700564 0.038148666896364265 -0.004379407393143457 0.026451170321225244 0.000673052717876785 -0.014373193892157254 -0.017995338393923116 -0.022259565234622535 -0.026861626600079676 0.018160509315374142 -0.004453012316576753 0.010684392360203406 -0.01927662473719786
armchair 0.022674383773632786 -0.03539047577856656 -0.01954558302360751 0.04118947402628906 0.01490503056522678 -0.011166923775282852 0.027869868667467552 -0.054435877348570264 -0.030715665372554213 0.020326660179040012 0.032420462709577644 0.006496881299159106 -0.00041787468773477217 -0.011514772435047609 0.008014997659141527 0.00835697602151948 0.04410603446612025 0.011379710864275694 0.023093892809222725 -0.01823572576540755 -0.03294249333660392 0.027393293367554982 0.016299339973877922 -0.02513919603284996 0.02273460982285221 0.02182988222578869 0.014557947240331593 0.0025884091498001535 -0.026485046097899183 0.04862691256601144 0.014503230614697231 0.030457780049319434 -0.00841384891913656 0.0509567737702609 0.03417049787993379 -0.046421899638303066 -0.01837671537171392 0.03982605560518363 -0.026597120360640797 -0.04449816334390027 0.03767439001239836 -0.02408632999012137 -0.022767110125106925 0.02973200862898546 -0.043361810392097515 -0.0005090361913008725 -0.005567722700481468 -0.0006276193975388785 -0.019680722835747635 0.008126842926311143 -0.012564839083043969 -0.02660180159899242 -0.012288293801248074 0.011717351037077606 -0.044526565002503474 -0.029613542165059376 -0.03250285726971924 -0.038919802481199015 0.034835426355986035 0.007433895295595422 -0.023131850935683092 0.040486173759050226 -0.012019846581525225 0.0016965615042649647 0.0003766054527231437 0.03296225249548169 -0.02702835145379033 -0.041137203194118815 0.008888700130388743 -0.0014488320444155868 0.007440308059278109 -0.040398699724498915 -0.006073095507043249 0.011202540933428443 0.04421112363171928 0.012984285952852052 0.006541533806525609 -0.011036569608704132 -0.008449339088709915 0.01663526933749809 -0.025846070801729664 0.011008051566450912 0.04478227632010684 0.018646041123086914 -0.03204374514205162 0.03234516292372171 -0.010965207103735712 0.03423733842175673 0.03803923375466291 0.007747336583527024 0.031641775194336384 -0.006855335456373937 -0.025277388172552866 0.018774432335596752 -0.03606923294308431 -0.02573185435989324 -0.006373245186884613 0.04583882135065163 0.005020495326093891 0.04885768330217723 -0.026813397546956205 0.01086587312131408 -0.004958718895282158 0.0402113916900228 0.03256236854940653 -0.019091058043105638 -0.0037954466088729747 0.007418062620084076 0.029275384101578417 -0.02848384200650103 0.04148433511898689 0.017187440518789704 0.036778626306092035 -0.002250679748078041 -0.0017162920677733114 -0.028742508497089148 -0.01650435526800506 -0.009359724306063178 0.02571546020986074 -0.02630766453769277 -0.04697386537651148 -0.03082213032843463 -0.023160212782814223 0.03970930109533262 0.002927697359529488 -0.013504946207189384 -0.017002715020413128 -0.020334012018900144 0.022419871187166256 0.023504054290242493 0.033228151212610746 -0.00241115692016833 -0.028546456028433406 -0.01064365403726697 0.005216500271618476 0.01927910723230418 0.0070251717560869805 0.011560602558721952 -0.0035163251313326113 0.017221303519738072 -0.001782056238666615 0.014657718290383107 -0.01878687340136179 -0.017413837424315074 0.007809962419902577 0.012051542334066814 0.03262989743448356 -0.05510338751243099 0.019005205002887285 -0.034918766319820216 0.0007215200594681151 0.00440700604196857 -0.04553381646709407 -0.04593080112381893 0.0382628496051492 0.025822447653969422 0.05226833703379859 -0.004773166694897501 -0.021058239891905996 0.013852068579153103 0.0025983037262716714 -6.591775180662379e-05 -0.02547913563766462 0.0057374611556845 0.032306503614082056 -0.01382753228330437 -0.0023256806752589695 0.02638141015161048 -0.013300389359595583 -0.013882805319393383 -0.04389021075878512 -0.002732833765228005 0.011693739412722233 -0.011315885780598311 0.0001921788496153621 -0.004330692278659519 0.02081629362724283 0.03387895757880281 -0.04063459595336633 0.005983301547958571 -0.049241812242304575 -0.02048143864992787 0.017703249522823813 0.0034922282759319336 0.017827402483603424 0.03642077922054073 0.028781726545489886 0.032089220195570416 0.044540992444928956 0.0336228580597569 -0.04293994452146923 -0.03334618542987086 0.02742590371738462 -0.02763232058051097 -0.04973737112082103 -0.030524970744462573 0.007056995829129044 0.008812951783457881 -0.026600068229634094 0.015929457978071535 0.039637171526384705 0.0510853483728544 -0.005472657284425462 0.012227183406460373 0.00035895731793168713 -5.603102309738888e-05 0.020613852877217783 -0.04347151038853232 -0.028305532465524533 -0.044327682500485986 -0.015407648101887283 0.013409781160161775 -0.015774822684333605 -0.0026336197633474298 0.052136551047784876 0.026616090004715848 0.00018487372161710963 -0.005562108886592528 -0.0034206380300662097 0.007741708061931764 0.017774843610823154 -0.021171791292384595 -0.005871402579085792 -0.018714571323738816 0.023722154526587796 -0.024922394269036457 -0.04015175855773337 0.014983603182960959 0.03676785866222792 0.0020082493805710006 -0.011397183900151183 -0.013777715037576854 0.012972718734732446 -0.012544533730868031 0.0127623120925444 -0.0483403130167383 -0.0038096900234985 -0.029178755029159432 0.007946871001930797 0.03088465568212354 -0.02764268991920878 -0.004223378758658381 -0.0357701061601641 0.06007150434614981 -0.022853373419767356 0.003238369382041342 -0.01834766794105663 -0.044912490481425156 -0.026963049658875474 0.022165092009612742 0.02564618573524058 -0.01796928113874267 0.032817438491346204 0.01946238922092187 0.006064859684556723 -0.007497259429382051 0.018032019735341343 0.013279083638575257 -0.027973699438221315 0.025246959782260305 0.0031237013172358274 0.016944368232918137 0.006839307901613852 0.028510450440294603 0.002059421228135333 0.01588656154789907 -0.01096838471644065 0.033835439230589306 -0.019954150477561224 0.015960568137576476 -0.015061055917398977 -0.006899615667541237 -0.04251691148452023 -0.004621684701894136 0.0034143713864443056 -0.032977745210861456 0.04248654743766084 0.0023511637769201223 0.0011460952227935195 -0.03904842831851805 -0.016257412129027003 -0.01823480420588406 -0.03431047915535815 0.009230984676191035 0.020228079670821044 -0.029324787997585887 0.02511577471416197 0.017444493029924 -0.004685830462542928 0.014898788567413302 0.02162678571938373 -0.05005192121162134 0.039016422308871854 -0.031007598592516256 -0.0029316483020974215 -0.016925632707117236 0.0336698847822845 0.05227513015544152 -0.02325689756338868 -0.04210818641106872
armour 0.012847163914037603 -0.012266293933082904 0.037163980184621845 0.03338557752847139 -0.025376508386606083 -0.04619280993938446 0.022493789500523626 0.025537352609847273 -0.034354517968105416 0.016079554167975272 0.018420334456355443 -0.02739804347843996 0.036587053893267045 0.02661295421421528 0.03136624222055876 0.013903249221454774 0.023523583808647736 0.01498587110212871 -0.028100627208394662 0.009111878071312926 0.043429626210127026 -0.008565069691810225 -0.01434639943545335 -0.032146703152518184 -0.013132489552455289 0.02461131795176438 0.016933861612674912 -0.030879478036825145 -0.02547529017881191 0.035531972135816305 0.025063603850347654 0.019858315653566803 -0.03703501761525071 0.036638525780290365 0.007808356529234776 -0.05466234191719975 -0.02605335640587977 0.05094121359953923 0.040290682327135334 -0.021095252728887966 0.01972451721251543 -0.0091874617916931 -0.023221681376786103 -0.040389439914309024 0.023704521474428475 -0.047695326153188944 0.03236558745681707 -0.011040395924023219 -0.017976715196709847 0.02289203181862831 0.03714841690712741 0.0066603331028350764 -0.001795080371916161 -0.002642922652220087 -0.0467800332698971 0.03127513027616909 -0.027859088765191182 0.004032198730523565 -0.023048287523644313 -0.04655768891929516 -0.0035594500451614814 0.001867906074039638 0.025584676901676824 -0.001725745470529156 0.013972061869156147 0.02969764093203204 -0.011955682105118675 -0.017307055116231953 0.027149610188124434 0.030647278021206148 -0.026807062228077223 -0.038548238933019875 0.00874127823460315 -0.0037792943060464624 0.033910723868757486 0.03896390566868441 0.03931880978468273 -0.030984849402947084 0.015558778773993254 0.033567485199975114 -0.02491806238166256 -0.016835550112383708 0.006731858379290705 0.027041188765516772 0.013476590243434268 0.05118786779764507 0.0044126009036387715 -0.00044197802032743184 -0.010426154044190688 -0.0308365127088369 0.028732767993850366 0.0018230989974524295 -0.03287914614858372 -0.015370330540463328 0.025980720861947963 -0.007327256774130676 0.026512630649709275 0.02636173740029335 0.002302525415351348 -0.002753297224574323 0.01783994655124843 0.01453843919028129 -0.004614509642124176 0.016471260751131922 -0.016937848047486374 -0.024703235598281026 -0.009092673725847687 -0.0117435326267566 -0.025808877710785185 -0.024466282771235064 -0.0023403269421708372 -0.030638030064957484 0.030651026671486243 -0.01611361132901428 -0.02428703655355743 0.033125690034856756 0.011436861923097499 0.004054981030224424 -0.03986004367470741 -0.01674198016657361 0.025258172627738013 0.012455358801941787 0.0006016127632132598 0.03970780610065309 0.01562550978269428 -0.0036716597553874764 -0.056481473946145604 -0.0026081963442265987 -0.0038835486297362615 0.015949349538589428 0.038024538213254085 0.045815565822912116 -0.02502707258931228 -0.02713986810496343 0.003081899818166026 -0.002044519634052579 -0.01823518398616995 -0.003991051377462489 -0.01667641575581261 -0.03061867837095633 -0.004378407952442233 0.007475105579942465 0.009597363790297615 -0.027138084256356314 -0.006113575405574271 0.019726086848615005 0.026491834478552585 0.002708150988577732 0.019983294353421246 0.021260334245328392 0.0010437857625739916 0.010557490500754543 -0.034911896800622344 0.001562438639146941 -0.014696141788070756 -0.010649416163297636 0.007407286595220545 -0.026423979648305767 -0.004720036605639117 0.007449356772537742 0.009188500798440405 -0.013506662898830004 0.008582133685162521 0.021562974159938415 0.018663456231089576 -0.02967690831948338 0.023818611167371273 0.0243239232472011 -0.029578128301571787 -0.03229600407316217 -0.0425520408898592 0.0017665614484160738 -0.03548571387571948 0.033277279032128196 0.02989215576755149 -0.005641081703028509 0.007935934334195085 0.054502587079436386 -0.006502743078661817 -0.018486745173244605 -0.014898744844166296 0.016102585276322707 -0.02060679209119241 0.04048915732502272 -0.031575503293424845 0.0008017894745405231 0.011364456469891593 0.008205368582691466 0.0037289897611896905 0.043139874955938594 0.018451474740036895 0.0030142709500588743 -0.013289516858224357 0.003565030571605478 -0.022609513111612096 0.021497791533485206 -0.017246174792359983 -0.0579049163664292 0.0038939103199351977 0.026793702505528927 0.013601123355329037 -0.002751387622473495 0.045385055727820145 0.01408255343475113 0.00022159540094435215 0.02354361603231934 -0.030677988347763727 -0.04316336644946465 -0.03731442344308432 -0.024873833799314786 0.035349626410087306 -0.03182352401407635 -0.02456949538983671 -0.031206620324935232 0.04437356375690017 0.0006016578658350877 -0.01262462802696973 -0.002471681002394429 -0.058345995909933536 0.028735144629276226 -0.009349983455779563 -0.008317119641495603 -0.010459521347781577 -0.00038109743036329746 -0.010418425729897405 -0.044959406568003554 -0.013228465711498367 0.012118988736931766 0.008957239100709558 0.016020377598968998 -0.008447388153789299 -0.03225412878340909 -0.015342892580000418 -0.025970154874292866 0.03365683158127857 -0.03577000291053472 -0.0006023445499262639 0.05086537856342537 -0.04094233407106783 0.017512910034773604 0.037202331403802545 0.03308793742741857 -0.016306003338676028 -0.015285900660923548 0.025843818206340075 0.019935847792242254 0.006403401627072266 -0.0171303375224982 0.02031653593959553 0.010114807702068771 0.030559317641226307 -0.013362542502103938 0.016606596797438606 -0.05345269892963448 -0.03140313956620438 -0.004910495863961322 0.010336114742260958 0.021739803687004105 -0.04708616924472153 0.03536971192806959 0.01877417042851448 0.047644935781136155 0.015603927413134702 0.004633013025990554 0.010837181720749609 0.024339648262996758 -0.008081300583268915 0.005436082004702517 -0.002336004682417427 -0.0069042853678443605 0.030303538776934147 0.01498204137065581 -0.008963654399849474 0.005826742787446294 0.023470324597188404 0.016963336467077688 0.009108387295522593 -0.036995582548635345 0.02336747445432203 -0.0020631614939442705 -0.025837076428745474 -0.00825681519095919 -0.00968705363837736 -0.0037691438504095587 -0.019721167527937462 -0.04178066325506994 -0.045830581492347325 -0.01646370753379805 0.006311710503983444 -0.030524312676529268 -0.018350632445487593 -0.037502373036529334 0.007034375847849462 0.042443156109324524 0.00013172470166214874 0.01155194447242788 0.0043584974482655525 0.05470785152699266 0.017227573885715435 0.018535893011306013
arrow 0.03023993624891672 -0.026166571486126285 0.01607970563539614 0.014720434322953224 -0.006338777020573616 -0.04425810039457348 -0.0021107970969751477 0.01901284222387605 -0.013348654235920144 0.016137035201407142 0.0069735445237408085 0.00400922857483642 0.03411286015762016 0.0012247668475740487 -0.009775025666587882 -0.02771348911078854 -0.005921337177925225 0.03873513869216873 -0.025928654100021556 0.0003624844830483198 0.03470001863186351 0.0134181344959264 -0.03347480589420431 -0.02071842619787074 0.04872952955257562 -0.0013467941332944771 -0.0478770192195144 -0.023084323698033888 -0.027453584696761228 0.03651799799667464 -0.022957148153283116 0.03467251821550437 -0.05157527807427363 0.022215857713793714 -0.011712745375310382 -0.010145690188639693 0.006405919547736024 0.03139960734794537 0.031942316730338566 -0.0320682466618665 -0.010238415758067276 -0.002433980582281947 -0.04414547933265567 -0.04201863708698915 0.03955656935512605 -0.010283992535227703 -0.004441589207595421 -0.0042361062951385975 -0.015361721174687974 0.01698258115599553 0.015886036284630083 0.039578227119313344 -0.03065133524230785 0.026272013907954615 -0.06163375232265227 -0.01375292774496807 0.011196168100771805 0.019338867963395186 0.016161916609336104 -0.034863414579174586 -0.057126321726375155 0.012488032458350062 0.017783945597734094 -0.004302348437098165 0.015083275020717539 -0.0057570925499829985 -0.022151113022118807 -0.020213784779318504 -0.0005924591241637245 -0.010338515457179811 -0.017593972540150087 -0.03420462738722563 -0.03182690735492441 0.01166385536069154 -0.02649089246470895 -0.037713897336895265 0.014283849469696483 -0.053433397914179497 -0.033393794554285705 0.0318006147733993 -0.037995337562986405 -0.03721370056478514 0.016829142023602292 0.028747317109567423 0.02552451965230931 0.05884020822122693 0.032308414578437805 -0.005895740869972441 0.04634641122053532 0.0012372153772351642 0.028894925709917314 0.013100140676316287 -0.01302682677568454 -0.04980192883198874 -0.049119017345623836 -0.0345250650231416 0.007198741633651985 -0.001756191486492753 -0.0055140461513979565 -0.012956916141168525 -0.05211883467725582 0.016904372825390764 0.03239693629600677 0.011601089538695911 -0.05066269068306105 -0.030204575120781858 -0.031227251773493156 0.03206633088282413 -0.010240786915851964 -0.032144037851442896 -0.0024420303913454213 0.014394432797821032 0.026011954242777493 -0.006806059643470992 0.018636703982742295 0.05438724847691548 0.011821741936728358 0.008841011336901121 -0.0473162956121895 0.025900039964148566 -0.0011143838831533988 -0.017095451100936368 0.05153567892395788 0.018878822814763732 -0.03362096401138438 0.033388077087389924 -0.036924873064789504 -0.023884366421649855 -0.03632361749704513 0.036630572667086705 -0.016591192837545857 0.04725109917732576 -0.03395621258661979 0.030222586433713634 0.01866618453318046 -0.029198102885857224 0.03593997057760134 0.008704871133280298 -0.022989363331968587 -0.008991835584513157 -0.04014702643811082 -0.0005239576049562958 -0.01398945327511885 -0.038115516718890935 -0.012766112275939021 0.021259655917270318 0.007243950573158347 -0.036458486225456 0.01374278807391723 0.014261872818072638 -0.04373328806832433 -0.01954927834837387 -0.025969602529787354 0.0476103642787267 -0.02588062422970931 0.00023509970762663416 -0.0376572554361903 0.026857913626978796 0.042090294999070466 0.02699312266971295 0.026630098420557462 -0.03954941841463248 -0.015658162379016478 0.025266883028557965 0.02751999184773821 0.0042757962849767255 -0.03383751668217075 0.0026658319984562695 -0.019031306909811165 0.007734429556876421 -0.016353877675202157 -0.008400456669429937 -0.04528102870487297 -0.022687258354077738 -0.005558077013120055 -0.03976160480912464 0.026709453616705205 0.03610633903493484 0.01014579943795171 -0.028973944653342996 -0.031034388553558126 0.0027208749864560864 0.030004403243462246 0.04268285497285736 -0.026898729097512033 0.020772143551665876 -0.014469077610152049 -0.017747568846162822 -0.04043181637664222 0.0027750886543395203 0.005526325962920155 0.0067193817166197635 -0.0068731465693821926 -0.018077403203480773 -7.931276276293729e-05 0.028533570701256394 -0.03435499358844633 -0.03265051065116293 -0.008782009542402294 -0.015019045961606834 0.020572725140179198 0.014245158966837658 0.001653395115782688 0.036258790493270174 0.016639509083082277 0.03916956912467463 -0.019921158653839182 -0.005803481882645024 -0.021001992646941088 -0.015736091301328595 0.0347370490587006 0.0011762516886746096 -0.00750006042006943 7.152350412474738e-06 0.015526170738869242 -0.0032201505722089982 -0.0037805182833431494 0.05944607379691055 -0.025146144584545657 -0.013831582308436433 0.034898796325756445 -0.025794272388642032 0.01007557324030333 0.023459773717655077 0.018366352664694812 -0.008902953135677509 0.009166029666731548 -0.0038627458108951235 0.020412346134738375 0.003643014726953374 0.03402642856882368 -0.022076626809494983 0.020815683567586046 -0.0055651133103917045 0.01930637166111006 0.002495232406848421 -0.03227569406024284 0.06737777295832832 0.013577910657558177 0.023785513075482514 0.023272302027584776 0.04595074888008336 0.03644403239660379 -0.0035839354790773038 0.02501795409868161 -0.02149060321971774 -0.006386635669817527 0.0014937591428558032 -0.041671761932472386 0.029377390384777553 0.00639484293707129 -0.01893754461262789 0.0023664938570517632 -0.01254894828889519 -0.016095725226073734 -0.005817898626749714 0.03303414518530998 0.015701260327154562 0.004547335052241881 0.014827079938388325 -0.030776443619591493 0.0014898912696581748 0.008526334749250155 -0.03989094246794088 0.03870223320296241 0.022728238875667255 0.005195193354868227 0.003618492770733105 -0.009956649815042814 0.011618811954071539 0.034623309986070834 -0.032064898715664945 -0.021535855148815446 0.008855872347743975 0.03860549791069287 -0.020345475809234712 0.036333504779678255 -0.03615081147290766 0.007547328377970391 -0.04804056611222526 -0.02513781308920847 0.02438844541191227 -0.03985933028484902 -0.021303618740704324 0.013018708042283025 -0.05069913998886477 -0.019652534431467455 -0.03533548810001877 0.036665675695985556 -0.038212657906115055 0.0046069217367201215 -0.007720376901690745 0.0033838839089084002 0.010089557721383043 -0.0030426261655520648 -0.0004885289300647047 -0.038321325089782476 0.00923609562515695 0.0166991329105157 0.033185238044502005
artichoke -0.050168121419847014 0.03839179836213589 -0.012664928892627358 -0.02746406910009682 -0.017821212229318917 0.026524727582000196 -0.05393456984311342 0.020114001585170627 -0.008791187242604793 -0.0260312955128029 -0.03221509978175163 0.043884460794652115 -0.021434657322242857 -0.03801684374921024 0.04751628618687391 -0.005029282538453117 0.01684681810438633 0.018549053557217123 0.04039790625683963 -0.002333993068896234 0.05383882506284863 -0.01019828396383673 -0.027515471237711607 0.038891253829933706 -0.04354092050343752 -0.048625588044524194 -0.03000810508383438 0.042005611897911875 0.035694751888513565 -0.05488825596403331 -0.04250631937757134 0.025412830919958652 0.052767257066443564 -0.04980201213620603 0.025879555358551444 0.02843956695869565 0.014513041987083853 0.010643332696054131 -0.033042144728824496 0.04176154402084649 -0.010260432329960167 0.03007675487315282 -0.0026369872270151974 -0.0018602302763611079 0.018660641647875308 0.054551963321864606 0.0356931657763198 0.02615958536043763 0.021560171246528627 0.039166382234543565 -0.04130993377766572 -0.02918376822490245 0.04006101272534579 -0.034243789571337405 0.0585470496211201 -0.04948126282542944 0.01495646263647359 0.02558247810229659 -0.03230254715308547 0.030196942179463802 0.05054816732881591 -0.0220376709534321 -0.003659833502024412 0.02387081303168088 0.020139786310028284 -0.03267963696198421 -0.042621036898344754 0.021722713951021433 -0.03246026411652565 0.016587356477975844 0.004444842785596847 0.0504009909927845 -0.021021967753767967 0.05134579613804817 -0.034897946866112764 -0.015678028762340545 -0.037166470754891635 0.04057923435466364 -0.029181826137937607 -0.040307457000017165 -0.0215791744296439 -0.01861075796186924 0.030816469850833528 -0.03826728394342353 -0.02273514270782471 -0.05780839864164591 0.020630081387935206 0.03400454819202423 -0.04409846402704716 0.005859864316880703 0.0036753566237166524 -0.055447927210479975 0.04363772002980113 0.042944235075265166 -0.021036535524763166 0.0655705377459526 -0.04812086531892419 -0.014918216224759816 -0.011267465353012086 0.04584124051034451 0.023086097068153323 -0.03530397494323552 0.02799164573661983 -0.04437288055196405 -0.036623628064990046 -0.04227927415631712 0.03740545230684802 -0.030776682216674088 0.028315729717724024 0.03662431593984365 -0.04848794445861131 -0.03511145181255415 -0.0431411923840642 -0.004869122384116053 0.014770477637648582 0.007809718302451074 -0.005334795266389847 0.008992244116961956 0.031508025736548005 -0.005142918042838574 -0.037079376121982935 0.04707152405753732 -0.04507141569629312 -0.01246031462214887 0.02449055528268218 0.0025707571592647584 0.06791399614885449 -0.03215455710887909 0.012494520237669348 0.0330272288993001 -0.034926045872271064 -0.02297673670691438 0.009486851934343576 0.025591687811538578 -0.07285543937468901 -0.032088091410696504 0.03523379936814308 -0.02630583681166172 -0.006140929367393255 0.010515657905489206 -0.009297776076709851 0.041992269922047853 -0.008934877323918044 0.04321836680173874 -0.020415230398066343 -0.0014407399576157331 -0.036660637613385914 0.03423263821750879 0.006544671300798654 0.00261055578594096 0.04496851898729801 -0.037535748723894355 0.05664876057999209 0.02928863260895014 -0.05345196309499443 -0.024409528728574513 -0.036266399268060925 -0.01958856803830713 -0.007084246282465756 0.05965970265679062 -0.03596198537852615 0.047854481544345615 -0.009422419033944607 0.024930565478280188 -0.010802147397771477 -0.030661555519327522 0.01832421156577766 -0.05929162222892046 -0.007844687229953707 0.037089043855667116 0.04665170619264245 0.01057435580296442 0.02487056637182832 -0.04223620165139437 -0.04116189237684011 -0.019293835479766132 0.022831733152270318 -0.04650241322815418 -0.006336952460696921 -0.037886841944418846 -0.014374117320403456 0.005270898621529341 -0.022464123694226144 -0.03141136224148795 -0.0420258208643645 -0.0676268020644784 -0.024822468776255845 -0.015850056911585853 -0.04608573061414063 -0.038604687945917246 -0.04306187715847045 0.034182784880977125 0.004800370160955936 -0.021006521419622004 0.016621825657784937 -0.002852504560723901 0.024607820063829423 0.03935171505436301 -0.038913750741630795 0.007588904723525048 -0.04483905766392127 -0.07651632130146027 0.007372024335199967 0.04025822728872299 0.023805241758236662 0.004426263354253024 0.04781216278206557 0.03429483654908836 0.044574222434312104 0.04282213235273957 -0.0500124417245388 0.04630517321638763 0.033047070167958735 -0.017478850425686688 -0.06765330880880356 -0.009054077789187431 -0.018230098532512784 -0.0007878261618316174 0.016378583386540413 -0.020788913033902644 -0.061922071315348146 0.030491735553368926 0.03614869851153344 0.03805935950949788 0.04378493977710605 0.037156264390796424 0.006599015276879072 -0.04553351495414972 -0.048181896656751634 0.00899387733079493 -0.036982386466115715 0.048910006508231164 -0.009400093369185925 0.0379688082030043 -0.05111938794143498 -0.02657277197577059 -0.014000696525909007 -0.05983737837523222 0.04358599530532956 0.009495607297867536 -0.037459525279700756 -0.05344889471307397 -0.06236976296640932 -0.03449312117882073 -0.01251049330458045 0.02864548531360924 -0.04429313575674314 -0.014109454117715359 -0.009818070428445935 -0.03599101772997528 -0.02128153941594064 0.005761071247979999 -0.0342783244792372 -0.0014721468018251472 0.029929496347904205 0.03604718138522003 0.015236540138721466 0.037575840833596885 0.03166100610978902 0.02237694118084619 -0.030210614716634155 -0.024700238741934298 -0.020885724628169556 0.008223871048539878 -0.02930885273963213 -0.002935308963060379 0.010818261359236202 -0.05415299027226865 -0.0452999890781939 -0.03770471317693591 0.02210347750224173 -0.017998574255034327 0.018646166916005312 -0.008221751806559041 -0.05564013874391094 0.03761381627991796 -0.03819551803171635 0.006839787401258945 -0.01762273283675313 0.05975597258657217 0.05504264917690307 0.008418492984492331 -0.002657864289358258 -0.05387063142843544 0.037837816122919324 0.041027838984155095 0.050165238045156005 0.03402500171214342 0.042953450325876476 -0.04132852414622903 0.018672263505868612 0.05357580830459483 -0.03190690269693732 -0.05375509345903993 -0.036532400734722616 -0.01911199758760631 -0.008209364023059607 -0.04441788112744689 -0.018035242485348137 0.04376223627477884
ashtray 0.01967699480675427 0.029151578932734474 0.009501795683588301 0.008884908989005322 -0.00234737347013184 -0.05485054837689469 -0.05525232622000788 0.012331611061069583 0.015056673969541277 0.0020342464558780193 -0.004266947175243071 0.02289608513404216 0.002390696101688913 -0.019480119326284955 0.03944255903895412 -0.03056061449959608 -0.034725772167023806 0.0009125700619603906 0.021246926825759665 0.02267455036884972 -0.006651200487145356 0.02584474886368428 0.04968431096027156 0.008381651348567434 0.047236760812146325 -0.017314831809406833 -0.007213246742529529 0.01923366752245264 -0.042706022172101905 0.0207617985901639 0.04519262450880238 -0.02572771055357797 -0.04568108187855354 0.023900685241512423 -0.024586534426946725 -0.0022936290396111353 -0.01999033099803325 0.007800974535972013 0.040525092859752476 -0.03883742158567267 0.03663301317387128 0.04111300368926355 0.03184057193409119 -0.03456987187798534 0.00035246163939258883 -0.027693166231204356 0.012053019666512097 -0.03504493235751787 -0.05160131371979203 -0.0017614867205598525 0.005513632470475776 0.0063702835135960156 0.039219858889867155 0.013315479321006154 -0.019121330231428146 -0.0085338203768645 -0.005666868495089667 -0.010637890813606126 -0.0015030034119263291 -0.002174768929502794 -0.03221530825664688 0.007754619366356305 -0.0013860469584220222 -0.001102037195648466 -0.02563795031580542 0.004552848470796432 0.014017400913871825 -0.04122471589445403 -0.019201493339746127 0.003205448871345392 0.034910780643778186 -0.009308473755871611 0.026000366512952105 -0.01580910303787927 0.023006425681939748 0.030677974623228823 0.01667315053886601 -0.03523614828424927 0.03562693969745721 0.022519778127649 -0.037095795202601166 0.024158876031703715 0.0015764150136549557 -0.018131571422730173 -0.037446248677692244 0.011283368304637926 0.018927126324602535 0.03635317033955029 0.0032003977934696843 -0.00835742342418858 -0.004417450354334765 -0.03695971478841135 0.009050194706235613 0.0035323131430361953 0.014089795527979732 -0.03701208704816444 0.029633277328684926 -0.03096910855466766 0.01360429750223245 -0.028851951538984264 -0.016466486267745495 -0.051143930468242615 0.019788092068795646 -0.018726235812729492 0.011036295271229133 -0.016887081520898 0.02695452480656968 0.028503878424609348 0.026662608475557396 0.0010601866857281753 -0.02923424235944237 0.02086675867238747 0.00329542497638613 0.005965493357507512 0.04987070228837963 -0.005442312303265291 -0.0035148077461469385 -0.005462529050419107 -0.009760255626003658 -0.005589033543531384 -0.026448552184904526 -0.025510957456260388 0.0049902680163670865 0.005410093720586572 -0.010202132963708468 -0.010620120247559888 -0.029519886676488177 -0.0032007794112100135 0.03183577010141952 0.0356386499479413 -0.012093980900577403 0.03071889134922198 0.030729784231100763 -0.007562450532402311 -0.0009968723004151667 -0.00039240357000380754 0.003173303391252245 0.008931468234680193 -0.029337194317901907 -0.016339892089100822 -0.01877869583300448 0.023241231101565063 0.015159505718786801 0.010449159458013517 -0.032437253942979236 -0.004129838763869235 -0.03147014365198889 -0.01257897391250091 0.0208036161077741 -0.002017217455431819 0.003851246620927538 0.018867744166137918 0.003934529119370771 0.006218222435563803 0.029321911507785053 0.003405886731343344 0.01371966304057943 0.03367288992740214 -0.015762041921594312 0.03135513662294086 0.011424883435081159 -0.0004786280416218298 0.013237800981317247 0.032260536515553086 -0.03181611674205799 -0.008886029877300774 0.023323746930275644 0.03009961299332125 0.029767738422378898 -0.013013362485383238 -0.007851250902084368 -0.034313295468954105 -0.00912986313258963 -0.004893937979691795 -0.034439575991460254 0.008461226443094867 0.0026213323165263447 0.031634977411678325 -0.02867948676742214 -0.04633034055586904 -0.03198614331527746 0.010406659683212638 0.003352610327835594 -0.006756316675039541 -0.022564398740152165 0.010313017801049032 0.0069568519414003405 0.03404423081623723 -0.008357456852016705 0.02837386556452007 -0.04942894727823192 -0.02209337492656362 0.02454729872156999 -0.01876404818280467 0.0014393695164471865 0.023432273816849505 -0.05146918884877648 -0.014692852207060372 -0.027276880290758396 -0.0008941440402330565 0.034409546958548684 0.023050684282290086 0.011169119255750306 -0.011244823740396117 0.008415347863254803 -0.016270593407430818 -0.009521226552481363 -0.01612297192748104 0.02102720966961767 -0.019212054450430775 -0.0006021149456501007 -0.02313409397070895 -0.011267537267745606 -0.02825320139527321 0.021351683868228326 0.0018069230552230562 0.027125196489838084 -0.0013426343908317254 -0.03246129126221474 0.024391182365694215 0.0003591602934258325 -0.00731201478629373 0.0351899081641542 0.003945343944776271 0.008168138430586882 -0.02950943061815841 -0.008817845905598785 -0.0016091882550556744 0.007720621419139206 0.029712925049742416 -0.006118766048790089 0.004052141581528953 -0.011402322453380163 -0.02145168630938445 -0.020603178700964366 0.01764982725892748 0.03979386966342905 0.05359905567352793 0.012088329398206301 -0.004262468844119992 0.0435496515793992 0.04218013967121286 0.01646092428459919 0.01172504633931177 -0.009900736489466258 0.027536644666854824 -0.02820835294135447 -0.01849720154755882 -0.03252797571310241 0.038500604984749644 -0.021961153924036938 -0.06818074679800443 0.017753813582073365 -0.03980340735454645 -0.051290370754681396 0.014230081387462892 -0.02607414884758847 -0.005942050766732011 -0.03775543054715464 0.014213681487100465 -0.021751007663884332 0.016401145366087024 0.013118363326481943 -0.024316983995959163 0.01998999102839402 0.015953924041241407 -0.005334062368742057 -0.0046468052938247895 -0.02454178294699107 0.013447616049753768 0.022701768435321616 -0.018511910789779255 0.02350273189534034 -0.028700060078075955 0.0069463254037275745 -0.012172780249134771 0.04756184677327318 0.004147123998596466 -0.006200607406364205 -0.043329588669751375 -0.005689451853478593 0.02419238003702568 0.0038965425961318295 0.0011912637523242406 -0.028890930132807364 -0.04309794320059674 0.037305554757559936 0.012510304709264477 0.019864822571564997 0.026877429269786392 0.015123888434443091 -0.036327928005318554 0.026352879724332264 -0.010662973991462163 0.01773805294318923 -0.03551127818146987 0.006798252569361856 0.034882455764870555 -0.019621586992538402 0.01760696293786168
